digraph Tree {
node [shape=box] ;
0 [label="duration <= 510.5\ngini = 0.206\nsamples = 31647\nvalue = [27956, 3691]\nclass = No"] ;
1 [label="poutcome_success <= 0.5\ngini = 0.141\nsamples = 28080\nvalue = [25942, 2138]\nclass = No"] ;
0 -> 1 [labeldistance=2.5, labelangle=45, headlabel="True"] ;
2 [label="age <= 60.5\ngini = 0.11\nsamples = 27184\nvalue = [25602, 1582]\nclass = No"] ;
1 -> 2 ;
3 [label="month_mar <= 0.5\ngini = 0.098\nsamples = 26603\nvalue = [25226, 1377]\nclass = No"] ;
2 -> 3 ;
4 [label="duration <= 203.5\ngini = 0.092\nsamples = 26372\nvalue = [25100, 1272]\nclass = No"] ;
3 -> 4 ;
5 [label="month_oct <= 0.5\ngini = 0.041\nsamples = 16837\nvalue = [16481, 356]\nclass = No"] ;
4 -> 5 ;
6 [label="duration <= 140.5\ngini = 0.037\nsamples = 16650\nvalue = [16336, 314]\nclass = No"] ;
5 -> 6 ;
7 [label="age <= 26.5\ngini = 0.02\nsamples = 11520\nvalue = [11404, 116]\nclass = No"] ;
6 -> 7 ;
8 [label="housing <= 0.5\ngini = 0.109\nsamples = 468\nvalue = [441, 27]\nclass = No"] ;
7 -> 8 ;
9 [label="duration <= 88.5\ngini = 0.217\nsamples = 210\nvalue = [184, 26]\nclass = No"] ;
8 -> 9 ;
10 [label="job_unemployed <= 0.5\ngini = 0.024\nsamples = 81\nvalue = [80, 1]\nclass = No"] ;
9 -> 10 ;
11 [label="gini = 0.0\nsamples = 77\nvalue = [77, 0]\nclass = No"] ;
10 -> 11 ;
12 [label="balance <= 560.5\ngini = 0.375\nsamples = 4\nvalue = [3, 1]\nclass = No"] ;
10 -> 12 ;
13 [label="gini = 0.0\nsamples = 3\nvalue = [3, 0]\nclass = No"] ;
12 -> 13 ;
14 [label="gini = 0.0\nsamples = 1\nvalue = [0, 1]\nclass = Yes"] ;
12 -> 14 ;
15 [label="month_may <= 0.5\ngini = 0.312\nsamples = 129\nvalue = [104, 25]\nclass = No"] ;
9 -> 15 ;
16 [label="balance <= 171.0\ngini = 0.345\nsamples = 113\nvalue = [88, 25]\nclass = No"] ;
15 -> 16 ;
17 [label="balance <= 73.0\ngini = 0.451\nsamples = 32\nvalue = [21, 11]\nclass = No"] ;
16 -> 17 ;
18 [label="campaign <= 4.5\ngini = 0.236\nsamples = 22\nvalue = [19, 3]\nclass = No"] ;
17 -> 18 ;
19 [label="duration <= 107.5\ngini = 0.1\nsamples = 19\nvalue = [18, 1]\nclass = No"] ;
18 -> 19 ;
20 [label="day <= 21.5\ngini = 0.375\nsamples = 4\nvalue = [3, 1]\nclass = No"] ;
19 -> 20 ;
21 [label="gini = 0.0\nsamples = 3\nvalue = [3, 0]\nclass = No"] ;
20 -> 21 ;
22 [label="gini = 0.0\nsamples = 1\nvalue = [0, 1]\nclass = Yes"] ;
20 -> 22 ;
23 [label="gini = 0.0\nsamples = 15\nvalue = [15, 0]\nclass = No"] ;
19 -> 23 ;
24 [label="job_technician <= 0.5\ngini = 0.444\nsamples = 3\nvalue = [1, 2]\nclass = Yes"] ;
18 -> 24 ;
25 [label="gini = 0.0\nsamples = 2\nvalue = [0, 2]\nclass = Yes"] ;
24 -> 25 ;
26 [label="gini = 0.0\nsamples = 1\nvalue = [1, 0]\nclass = No"] ;
24 -> 26 ;
27 [label="age <= 24.5\ngini = 0.32\nsamples = 10\nvalue = [2, 8]\nclass = Yes"] ;
17 -> 27 ;
28 [label="gini = 0.0\nsamples = 5\nvalue = [0, 5]\nclass = Yes"] ;
27 -> 28 ;
29 [label="duration <= 120.5\ngini = 0.48\nsamples = 5\nvalue = [2, 3]\nclass = Yes"] ;
27 -> 29 ;
30 [label="gini = 0.0\nsamples = 2\nvalue = [0, 2]\nclass = Yes"] ;
29 -> 30 ;
31 [label="month_jun <= 0.5\ngini = 0.444\nsamples = 3\nvalue = [2, 1]\nclass = No"] ;
29 -> 31 ;
32 [label="gini = 0.0\nsamples = 2\nvalue = [2, 0]\nclass = No"] ;
31 -> 32 ;
33 [label="gini = 0.0\nsamples = 1\nvalue = [0, 1]\nclass = Yes"] ;
31 -> 33 ;
34 [label="balance <= 2159.0\ngini = 0.286\nsamples = 81\nvalue = [67, 14]\nclass = No"] ;
16 -> 34 ;
35 [label="balance <= 231.5\ngini = 0.225\nsamples = 62\nvalue = [54, 8]\nclass = No"] ;
34 -> 35 ;
36 [label="gini = 0.0\nsamples = 10\nvalue = [10, 0]\nclass = No"] ;
35 -> 36 ;
37 [label="balance <= 278.5\ngini = 0.26\nsamples = 52\nvalue = [44, 8]\nclass = No"] ;
35 -> 37 ;
38 [label="contact_telephone <= 0.5\ngini = 0.444\nsamples = 3\nvalue = [1, 2]\nclass = Yes"] ;
37 -> 38 ;
39 [label="gini = 0.0\nsamples = 2\nvalue = [0, 2]\nclass = Yes"] ;
38 -> 39 ;
40 [label="gini = 0.0\nsamples = 1\nvalue = [1, 0]\nclass = No"] ;
38 -> 40 ;
41 [label="day <= 4.5\ngini = 0.215\nsamples = 49\nvalue = [43, 6]\nclass = No"] ;
37 -> 41 ;
42 [label="age <= 24.5\ngini = 0.444\nsamples = 6\nvalue = [4, 2]\nclass = No"] ;
41 -> 42 ;
43 [label="gini = 0.0\nsamples = 4\nvalue = [4, 0]\nclass = No"] ;
42 -> 43 ;
44 [label="gini = 0.0\nsamples = 2\nvalue = [0, 2]\nclass = Yes"] ;
42 -> 44 ;
45 [label="job_unemployed <= 0.5\ngini = 0.169\nsamples = 43\nvalue = [39, 4]\nclass = No"] ;
41 -> 45 ;
46 [label="month_feb <= 0.5\ngini = 0.136\nsamples = 41\nvalue = [38, 3]\nclass = No"] ;
45 -> 46 ;
47 [label="job_blue-collar <= 0.5\ngini = 0.1\nsamples = 38\nvalue = [36, 2]\nclass = No"] ;
46 -> 47 ;
48 [label="campaign <= 4.5\ngini = 0.056\nsamples = 35\nvalue = [34, 1]\nclass = No"] ;
47 -> 48 ;
49 [label="gini = 0.0\nsamples = 32\nvalue = [32, 0]\nclass = No"] ;
48 -> 49 ;
50 [label="duration <= 114.5\ngini = 0.444\nsamples = 3\nvalue = [2, 1]\nclass = No"] ;
48 -> 50 ;
51 [label="gini = 0.0\nsamples = 1\nvalue = [0, 1]\nclass = Yes"] ;
50 -> 51 ;
52 [label="gini = 0.0\nsamples = 2\nvalue = [2, 0]\nclass = No"] ;
50 -> 52 ;
53 [label="campaign <= 2.0\ngini = 0.444\nsamples = 3\nvalue = [2, 1]\nclass = No"] ;
47 -> 53 ;
54 [label="gini = 0.0\nsamples = 1\nvalue = [0, 1]\nclass = Yes"] ;
53 -> 54 ;
55 [label="gini = 0.0\nsamples = 2\nvalue = [2, 0]\nclass = No"] ;
53 -> 55 ;
56 [label="balance <= 727.0\ngini = 0.444\nsamples = 3\nvalue = [2, 1]\nclass = No"] ;
46 -> 56 ;
57 [label="gini = 0.0\nsamples = 1\nvalue = [0, 1]\nclass = Yes"] ;
56 -> 57 ;
58 [label="gini = 0.0\nsamples = 2\nvalue = [2, 0]\nclass = No"] ;
56 -> 58 ;
59 [label="month_jul <= 0.5\ngini = 0.5\nsamples = 2\nvalue = [1, 1]\nclass = No"] ;
45 -> 59 ;
60 [label="gini = 0.0\nsamples = 1\nvalue = [1, 0]\nclass = No"] ;
59 -> 60 ;
61 [label="gini = 0.0\nsamples = 1\nvalue = [0, 1]\nclass = Yes"] ;
59 -> 61 ;
62 [label="age <= 24.5\ngini = 0.432\nsamples = 19\nvalue = [13, 6]\nclass = No"] ;
34 -> 62 ;
63 [label="day <= 10.0\ngini = 0.444\nsamples = 6\nvalue = [2, 4]\nclass = Yes"] ;
62 -> 63 ;
64 [label="gini = 0.0\nsamples = 2\nvalue = [2, 0]\nclass = No"] ;
63 -> 64 ;
65 [label="gini = 0.0\nsamples = 4\nvalue = [0, 4]\nclass = Yes"] ;
63 -> 65 ;
66 [label="loan <= 0.5\ngini = 0.26\nsamples = 13\nvalue = [11, 2]\nclass = No"] ;
62 -> 66 ;
67 [label="balance <= 9766.5\ngini = 0.153\nsamples = 12\nvalue = [11, 1]\nclass = No"] ;
66 -> 67 ;
68 [label="gini = 0.0\nsamples = 9\nvalue = [9, 0]\nclass = No"] ;
67 -> 68 ;
69 [label="balance <= 10437.0\ngini = 0.444\nsamples = 3\nvalue = [2, 1]\nclass = No"] ;
67 -> 69 ;
70 [label="gini = 0.0\nsamples = 1\nvalue = [0, 1]\nclass = Yes"] ;
69 -> 70 ;
71 [label="gini = 0.0\nsamples = 2\nvalue = [2, 0]\nclass = No"] ;
69 -> 71 ;
72 [label="gini = 0.0\nsamples = 1\nvalue = [0, 1]\nclass = Yes"] ;
66 -> 72 ;
73 [label="gini = 0.0\nsamples = 16\nvalue = [16, 0]\nclass = No"] ;
15 -> 73 ;
74 [label="month_sep <= 0.5\ngini = 0.008\nsamples = 258\nvalue = [257, 1]\nclass = No"] ;
8 -> 74 ;
75 [label="gini = 0.0\nsamples = 256\nvalue = [256, 0]\nclass = No"] ;
74 -> 75 ;
76 [label="pdays <= 239.0\ngini = 0.5\nsamples = 2\nvalue = [1, 1]\nclass = No"] ;
74 -> 76 ;
77 [label="gini = 0.0\nsamples = 1\nvalue = [0, 1]\nclass = Yes"] ;
76 -> 77 ;
78 [label="gini = 0.0\nsamples = 1\nvalue = [1, 0]\nclass = No"] ;
76 -> 78 ;
79 [label="month_feb <= 0.5\ngini = 0.016\nsamples = 11052\nvalue = [10963, 89]\nclass = No"] ;
7 -> 79 ;
80 [label="pdays <= 390.5\ngini = 0.013\nsamples = 10374\nvalue = [10307, 67]\nclass = No"] ;
79 -> 80 ;
81 [label="day <= 2.5\ngini = 0.012\nsamples = 10336\nvalue = [10272, 64]\nclass = No"] ;
80 -> 81 ;
82 [label="balance <= 5528.5\ngini = 0.066\nsamples = 206\nvalue = [199, 7]\nclass = No"] ;
81 -> 82 ;
83 [label="previous <= 1.5\ngini = 0.041\nsamples = 193\nvalue = [189, 4]\nclass = No"] ;
82 -> 83 ;
84 [label="contact_unknown <= 0.5\ngini = 0.022\nsamples = 178\nvalue = [176, 2]\nclass = No"] ;
83 -> 84 ;
85 [label="campaign <= 1.5\ngini = 0.078\nsamples = 49\nvalue = [47, 2]\nclass = No"] ;
84 -> 85 ;
86 [label="marital_married <= 0.5\ngini = 0.153\nsamples = 24\nvalue = [22, 2]\nclass = No"] ;
85 -> 86 ;
87 [label="gini = 0.0\nsamples = 15\nvalue = [15, 0]\nclass = No"] ;
86 -> 87 ;
88 [label="balance <= 130.5\ngini = 0.346\nsamples = 9\nvalue = [7, 2]\nclass = No"] ;
86 -> 88 ;
89 [label="gini = 0.0\nsamples = 1\nvalue = [0, 1]\nclass = Yes"] ;
88 -> 89 ;
90 [label="age <= 33.5\ngini = 0.219\nsamples = 8\nvalue = [7, 1]\nclass = No"] ;
88 -> 90 ;
91 [label="gini = 0.0\nsamples = 1\nvalue = [0, 1]\nclass = Yes"] ;
90 -> 91 ;
92 [label="gini = 0.0\nsamples = 7\nvalue = [7, 0]\nclass = No"] ;
90 -> 92 ;
93 [label="gini = 0.0\nsamples = 25\nvalue = [25, 0]\nclass = No"] ;
85 -> 93 ;
94 [label="gini = 0.0\nsamples = 129\nvalue = [129, 0]\nclass = No"] ;
84 -> 94 ;
95 [label="pdays <= 54.5\ngini = 0.231\nsamples = 15\nvalue = [13, 2]\nclass = No"] ;
83 -> 95 ;
96 [label="gini = 0.0\nsamples = 2\nvalue = [0, 2]\nclass = Yes"] ;
95 -> 96 ;
97 [label="gini = 0.0\nsamples = 13\nvalue = [13, 0]\nclass = No"] ;
95 -> 97 ;
98 [label="education_unknown <= 0.5\ngini = 0.355\nsamples = 13\nvalue = [10, 3]\nclass = No"] ;
82 -> 98 ;
99 [label="balance <= 5927.5\ngini = 0.278\nsamples = 12\nvalue = [10, 2]\nclass = No"] ;
98 -> 99 ;
100 [label="gini = 0.0\nsamples = 1\nvalue = [0, 1]\nclass = Yes"] ;
99 -> 100 ;
101 [label="age <= 58.5\ngini = 0.165\nsamples = 11\nvalue = [10, 1]\nclass = No"] ;
99 -> 101 ;
102 [label="gini = 0.0\nsamples = 9\nvalue = [9, 0]\nclass = No"] ;
101 -> 102 ;
103 [label="campaign <= 1.5\ngini = 0.5\nsamples = 2\nvalue = [1, 1]\nclass = No"] ;
101 -> 103 ;
104 [label="gini = 0.0\nsamples = 1\nvalue = [0, 1]\nclass = Yes"] ;
103 -> 104 ;
105 [label="gini = 0.0\nsamples = 1\nvalue = [1, 0]\nclass = No"] ;
103 -> 105 ;
106 [label="gini = 0.0\nsamples = 1\nvalue = [0, 1]\nclass = Yes"] ;
98 -> 106 ;
107 [label="month_sep <= 0.5\ngini = 0.011\nsamples = 10130\nvalue = [10073, 57]\nclass = No"] ;
81 -> 107 ;
108 [label="housing <= 0.5\ngini = 0.011\nsamples = 10085\nvalue = [10031, 54]\nclass = No"] ;
107 -> 108 ;
109 [label="pdays <= 179.5\ngini = 0.018\nsamples = 4386\nvalue = [4346, 40]\nclass = No"] ;
108 -> 109 ;
110 [label="month_dec <= 0.5\ngini = 0.015\nsamples = 4286\nvalue = [4253, 33]\nclass = No"] ;
109 -> 110 ;
111 [label="age <= 28.5\ngini = 0.015\nsamples = 4282\nvalue = [4250, 32]\nclass = No"] ;
110 -> 111 ;
112 [label="balance <= 3896.5\ngini = 0.082\nsamples = 116\nvalue = [111, 5]\nclass = No"] ;
111 -> 112 ;
113 [label="month_jun <= 0.5\ngini = 0.053\nsamples = 111\nvalue = [108, 3]\nclass = No"] ;
112 -> 113 ;
114 [label="job_unemployed <= 0.5\ngini = 0.02\nsamples = 101\nvalue = [100, 1]\nclass = No"] ;
113 -> 114 ;
115 [label="gini = 0.0\nsamples = 95\nvalue = [95, 0]\nclass = No"] ;
114 -> 115 ;
116 [label="duration <= 116.0\ngini = 0.278\nsamples = 6\nvalue = [5, 1]\nclass = No"] ;
114 -> 116 ;
117 [label="gini = 0.0\nsamples = 4\nvalue = [4, 0]\nclass = No"] ;
116 -> 117 ;
118 [label="education_tertiary <= 0.5\ngini = 0.5\nsamples = 2\nvalue = [1, 1]\nclass = No"] ;
116 -> 118 ;
119 [label="gini = 0.0\nsamples = 1\nvalue = [1, 0]\nclass = No"] ;
118 -> 119 ;
120 [label="gini = 0.0\nsamples = 1\nvalue = [0, 1]\nclass = Yes"] ;
118 -> 120 ;
121 [label="education_tertiary <= 0.5\ngini = 0.32\nsamples = 10\nvalue = [8, 2]\nclass = No"] ;
113 -> 121 ;
122 [label="gini = 0.0\nsamples = 8\nvalue = [8, 0]\nclass = No"] ;
121 -> 122 ;
123 [label="gini = 0.0\nsamples = 2\nvalue = [0, 2]\nclass = Yes"] ;
121 -> 123 ;
124 [label="job_student <= 0.5\ngini = 0.48\nsamples = 5\nvalue = [3, 2]\nclass = No"] ;
112 -> 124 ;
125 [label="gini = 0.0\nsamples = 2\nvalue = [0, 2]\nclass = Yes"] ;
124 -> 125 ;
126 [label="gini = 0.0\nsamples = 3\nvalue = [3, 0]\nclass = No"] ;
124 -> 126 ;
127 [label="campaign <= 1.5\ngini = 0.013\nsamples = 4166\nvalue = [4139, 27]\nclass = No"] ;
111 -> 127 ;
128 [label="duration <= 96.5\ngini = 0.03\nsamples = 1177\nvalue = [1159, 18]\nclass = No"] ;
127 -> 128 ;
129 [label="day <= 30.5\ngini = 0.009\nsamples = 684\nvalue = [681, 3]\nclass = No"] ;
128 -> 129 ;
130 [label="age <= 52.5\ngini = 0.006\nsamples = 678\nvalue = [676, 2]\nclass = No"] ;
129 -> 130 ;
131 [label="gini = 0.0\nsamples = 530\nvalue = [530, 0]\nclass = No"] ;
130 -> 131 ;
132 [label="marital_single <= 0.5\ngini = 0.027\nsamples = 148\nvalue = [146, 2]\nclass = No"] ;
130 -> 132 ;
133 [label="month_aug <= 0.5\ngini = 0.015\nsamples = 136\nvalue = [135, 1]\nclass = No"] ;
132 -> 133 ;
134 [label="gini = 0.0\nsamples = 123\nvalue = [123, 0]\nclass = No"] ;
133 -> 134 ;
135 [label="job_blue-collar <= 0.5\ngini = 0.142\nsamples = 13\nvalue = [12, 1]\nclass = No"] ;
133 -> 135 ;
136 [label="gini = 0.0\nsamples = 11\nvalue = [11, 0]\nclass = No"] ;
135 -> 136 ;
137 [label="day <= 16.5\ngini = 0.5\nsamples = 2\nvalue = [1, 1]\nclass = No"] ;
135 -> 137 ;
138 [label="gini = 0.0\nsamples = 1\nvalue = [1, 0]\nclass = No"] ;
137 -> 138 ;
139 [label="gini = 0.0\nsamples = 1\nvalue = [0, 1]\nclass = Yes"] ;
137 -> 139 ;
140 [label="age <= 53.5\ngini = 0.153\nsamples = 12\nvalue = [11, 1]\nclass = No"] ;
132 -> 140 ;
141 [label="balance <= 1250.0\ngini = 0.5\nsamples = 2\nvalue = [1, 1]\nclass = No"] ;
140 -> 141 ;
142 [label="gini = 0.0\nsamples = 1\nvalue = [0, 1]\nclass = Yes"] ;
141 -> 142 ;
143 [label="gini = 0.0\nsamples = 1\nvalue = [1, 0]\nclass = No"] ;
141 -> 143 ;
144 [label="gini = 0.0\nsamples = 10\nvalue = [10, 0]\nclass = No"] ;
140 -> 144 ;
145 [label="loan <= 0.5\ngini = 0.278\nsamples = 6\nvalue = [5, 1]\nclass = No"] ;
129 -> 145 ;
146 [label="gini = 0.0\nsamples = 5\nvalue = [5, 0]\nclass = No"] ;
145 -> 146 ;
147 [label="gini = 0.0\nsamples = 1\nvalue = [0, 1]\nclass = Yes"] ;
145 -> 147 ;
148 [label="month_jun <= 0.5\ngini = 0.059\nsamples = 493\nvalue = [478, 15]\nclass = No"] ;
128 -> 148 ;
149 [label="balance <= 115.5\ngini = 0.079\nsamples = 366\nvalue = [351, 15]\nclass = No"] ;
148 -> 149 ;
150 [label="job_blue-collar <= 0.5\ngini = 0.015\nsamples = 132\nvalue = [131, 1]\nclass = No"] ;
149 -> 150 ;
151 [label="gini = 0.0\nsamples = 109\nvalue = [109, 0]\nclass = No"] ;
150 -> 151 ;
152 [label="duration <= 130.5\ngini = 0.083\nsamples = 23\nvalue = [22, 1]\nclass = No"] ;
150 -> 152 ;
153 [label="gini = 0.0\nsamples = 21\nvalue = [21, 0]\nclass = No"] ;
152 -> 153 ;
154 [label="balance <= -230.0\ngini = 0.5\nsamples = 2\nvalue = [1, 1]\nclass = No"] ;
152 -> 154 ;
155 [label="gini = 0.0\nsamples = 1\nvalue = [1, 0]\nclass = No"] ;
154 -> 155 ;
156 [label="gini = 0.0\nsamples = 1\nvalue = [0, 1]\nclass = Yes"] ;
154 -> 156 ;
157 [label="balance <= 116.5\ngini = 0.112\nsamples = 234\nvalue = [220, 14]\nclass = No"] ;
149 -> 157 ;
158 [label="gini = 0.0\nsamples = 1\nvalue = [0, 1]\nclass = Yes"] ;
157 -> 158 ;
159 [label="day <= 25.5\ngini = 0.105\nsamples = 233\nvalue = [220, 13]\nclass = No"] ;
157 -> 159 ;
160 [label="duration <= 97.5\ngini = 0.13\nsamples = 186\nvalue = [173, 13]\nclass = No"] ;
159 -> 160 ;
161 [label="age <= 46.5\ngini = 0.5\nsamples = 2\nvalue = [1, 1]\nclass = No"] ;
160 -> 161 ;
162 [label="gini = 0.0\nsamples = 1\nvalue = [0, 1]\nclass = Yes"] ;
161 -> 162 ;
163 [label="gini = 0.0\nsamples = 1\nvalue = [1, 0]\nclass = No"] ;
161 -> 163 ;
164 [label="poutcome_other <= 0.5\ngini = 0.122\nsamples = 184\nvalue = [172, 12]\nclass = No"] ;
160 -> 164 ;
165 [label="month_nov <= 0.5\ngini = 0.114\nsamples = 182\nvalue = [171, 11]\nclass = No"] ;
164 -> 165 ;
166 [label="job_unemployed <= 0.5\ngini = 0.169\nsamples = 118\nvalue = [107, 11]\nclass = No"] ;
165 -> 166 ;
167 [label="day <= 14.5\ngini = 0.147\nsamples = 113\nvalue = [104, 9]\nclass = No"] ;
166 -> 167 ;
168 [label="previous <= 2.5\ngini = 0.054\nsamples = 72\nvalue = [70, 2]\nclass = No"] ;
167 -> 168 ;
169 [label="balance <= 7023.5\ngini = 0.028\nsamples = 71\nvalue = [70, 1]\nclass = No"] ;
168 -> 169 ;
170 [label="gini = 0.0\nsamples = 66\nvalue = [66, 0]\nclass = No"] ;
169 -> 170 ;
171 [label="age <= 36.5\ngini = 0.32\nsamples = 5\nvalue = [4, 1]\nclass = No"] ;
169 -> 171 ;
172 [label="gini = 0.0\nsamples = 1\nvalue = [0, 1]\nclass = Yes"] ;
171 -> 172 ;
173 [label="gini = 0.0\nsamples = 4\nvalue = [4, 0]\nclass = No"] ;
171 -> 173 ;
174 [label="gini = 0.0\nsamples = 1\nvalue = [0, 1]\nclass = Yes"] ;
168 -> 174 ;
175 [label="month_jul <= 0.5\ngini = 0.283\nsamples = 41\nvalue = [34, 7]\nclass = No"] ;
167 -> 175 ;
176 [label="age <= 58.5\ngini = 0.366\nsamples = 29\nvalue = [22, 7]\nclass = No"] ;
175 -> 176 ;
177 [label="loan <= 0.5\ngini = 0.337\nsamples = 28\nvalue = [22, 6]\nclass = No"] ;
176 -> 177 ;
178 [label="day <= 17.5\ngini = 0.302\nsamples = 27\nvalue = [22, 5]\nclass = No"] ;
177 -> 178 ;
179 [label="education_secondary <= 0.5\ngini = 0.5\nsamples = 6\nvalue = [3, 3]\nclass = No"] ;
178 -> 179 ;
180 [label="gini = 0.0\nsamples = 2\nvalue = [2, 0]\nclass = No"] ;
179 -> 180 ;
181 [label="duration <= 130.0\ngini = 0.375\nsamples = 4\nvalue = [1, 3]\nclass = Yes"] ;
179 -> 181 ;
182 [label="gini = 0.0\nsamples = 3\nvalue = [0, 3]\nclass = Yes"] ;
181 -> 182 ;
183 [label="gini = 0.0\nsamples = 1\nvalue = [1, 0]\nclass = No"] ;
181 -> 183 ;
184 [label="day <= 22.5\ngini = 0.172\nsamples = 21\nvalue = [19, 2]\nclass = No"] ;
178 -> 184 ;
185 [label="gini = 0.0\nsamples = 14\nvalue = [14, 0]\nclass = No"] ;
184 -> 185 ;
186 [label="age <= 43.0\ngini = 0.408\nsamples = 7\nvalue = [5, 2]\nclass = No"] ;
184 -> 186 ;
187 [label="duration <= 120.0\ngini = 0.278\nsamples = 6\nvalue = [5, 1]\nclass = No"] ;
186 -> 187 ;
188 [label="gini = 0.0\nsamples = 4\nvalue = [4, 0]\nclass = No"] ;
187 -> 188 ;
189 [label="balance <= 592.0\ngini = 0.5\nsamples = 2\nvalue = [1, 1]\nclass = No"] ;
187 -> 189 ;
190 [label="gini = 0.0\nsamples = 1\nvalue = [0, 1]\nclass = Yes"] ;
189 -> 190 ;
191 [label="gini = 0.0\nsamples = 1\nvalue = [1, 0]\nclass = No"] ;
189 -> 191 ;
192 [label="gini = 0.0\nsamples = 1\nvalue = [0, 1]\nclass = Yes"] ;
186 -> 192 ;
193 [label="gini = 0.0\nsamples = 1\nvalue = [0, 1]\nclass = Yes"] ;
177 -> 193 ;
194 [label="gini = 0.0\nsamples = 1\nvalue = [0, 1]\nclass = Yes"] ;
176 -> 194 ;
195 [label="gini = 0.0\nsamples = 12\nvalue = [12, 0]\nclass = No"] ;
175 -> 195 ;
196 [label="balance <= 372.5\ngini = 0.48\nsamples = 5\nvalue = [3, 2]\nclass = No"] ;
166 -> 196 ;
197 [label="gini = 0.0\nsamples = 2\nvalue = [0, 2]\nclass = Yes"] ;
196 -> 197 ;
198 [label="gini = 0.0\nsamples = 3\nvalue = [3, 0]\nclass = No"] ;
196 -> 198 ;
199 [label="gini = 0.0\nsamples = 64\nvalue = [64, 0]\nclass = No"] ;
165 -> 199 ;
200 [label="marital_single <= 0.5\ngini = 0.5\nsamples = 2\nvalue = [1, 1]\nclass = No"] ;
164 -> 200 ;
201 [label="gini = 0.0\nsamples = 1\nvalue = [0, 1]\nclass = Yes"] ;
200 -> 201 ;
202 [label="gini = 0.0\nsamples = 1\nvalue = [1, 0]\nclass = No"] ;
200 -> 202 ;
203 [label="gini = 0.0\nsamples = 47\nvalue = [47, 0]\nclass = No"] ;
159 -> 203 ;
204 [label="gini = 0.0\nsamples = 127\nvalue = [127, 0]\nclass = No"] ;
148 -> 204 ;
205 [label="day <= 21.5\ngini = 0.006\nsamples = 2989\nvalue = [2980, 9]\nclass = No"] ;
127 -> 205 ;
206 [label="education_tertiary <= 0.5\ngini = 0.01\nsamples = 1845\nvalue = [1836, 9]\nclass = No"] ;
205 -> 206 ;
207 [label="day <= 4.5\ngini = 0.005\nsamples = 1206\nvalue = [1203, 3]\nclass = No"] ;
206 -> 207 ;
208 [label="age <= 54.0\ngini = 0.048\nsamples = 41\nvalue = [40, 1]\nclass = No"] ;
207 -> 208 ;
209 [label="gini = 0.0\nsamples = 33\nvalue = [33, 0]\nclass = No"] ;
208 -> 209 ;
210 [label="age <= 56.0\ngini = 0.219\nsamples = 8\nvalue = [7, 1]\nclass = No"] ;
208 -> 210 ;
211 [label="gini = 0.0\nsamples = 1\nvalue = [0, 1]\nclass = Yes"] ;
210 -> 211 ;
212 [label="gini = 0.0\nsamples = 7\nvalue = [7, 0]\nclass = No"] ;
210 -> 212 ;
213 [label="age <= 30.5\ngini = 0.003\nsamples = 1165\nvalue = [1163, 2]\nclass = No"] ;
207 -> 213 ;
214 [label="balance <= 2462.0\ngini = 0.046\nsamples = 42\nvalue = [41, 1]\nclass = No"] ;
213 -> 214 ;
215 [label="gini = 0.0\nsamples = 40\nvalue = [40, 0]\nclass = No"] ;
214 -> 215 ;
216 [label="job_technician <= 0.5\ngini = 0.5\nsamples = 2\nvalue = [1, 1]\nclass = No"] ;
214 -> 216 ;
217 [label="gini = 0.0\nsamples = 1\nvalue = [1, 0]\nclass = No"] ;
216 -> 217 ;
218 [label="gini = 0.0\nsamples = 1\nvalue = [0, 1]\nclass = Yes"] ;
216 -> 218 ;
219 [label="age <= 58.5\ngini = 0.002\nsamples = 1123\nvalue = [1122, 1]\nclass = No"] ;
213 -> 219 ;
220 [label="gini = 0.0\nsamples = 1045\nvalue = [1045, 0]\nclass = No"] ;
219 -> 220 ;
221 [label="duration <= 124.0\ngini = 0.025\nsamples = 78\nvalue = [77, 1]\nclass = No"] ;
219 -> 221 ;
222 [label="gini = 0.0\nsamples = 66\nvalue = [66, 0]\nclass = No"] ;
221 -> 222 ;
223 [label="marital_married <= 0.5\ngini = 0.153\nsamples = 12\nvalue = [11, 1]\nclass = No"] ;
221 -> 223 ;
224 [label="gini = 0.0\nsamples = 1\nvalue = [0, 1]\nclass = Yes"] ;
223 -> 224 ;
225 [label="gini = 0.0\nsamples = 11\nvalue = [11, 0]\nclass = No"] ;
223 -> 225 ;
226 [label="balance <= 9219.0\ngini = 0.019\nsamples = 639\nvalue = [633, 6]\nclass = No"] ;
206 -> 226 ;
227 [label="age <= 45.5\ngini = 0.016\nsamples = 619\nvalue = [614, 5]\nclass = No"] ;
226 -> 227 ;
228 [label="age <= 44.5\ngini = 0.025\nsamples = 399\nvalue = [394, 5]\nclass = No"] ;
227 -> 228 ;
229 [label="month_aug <= 0.5\ngini = 0.016\nsamples = 377\nvalue = [374, 3]\nclass = No"] ;
228 -> 229 ;
230 [label="age <= 35.5\ngini = 0.038\nsamples = 156\nvalue = [153, 3]\nclass = No"] ;
229 -> 230 ;
231 [label="balance <= 592.5\ngini = 0.086\nsamples = 67\nvalue = [64, 3]\nclass = No"] ;
230 -> 231 ;
232 [label="balance <= 558.5\ngini = 0.17\nsamples = 32\nvalue = [29, 3]\nclass = No"] ;
231 -> 232 ;
233 [label="job_technician <= 0.5\ngini = 0.121\nsamples = 31\nvalue = [29, 2]\nclass = No"] ;
232 -> 233 ;
234 [label="age <= 34.5\ngini = 0.069\nsamples = 28\nvalue = [27, 1]\nclass = No"] ;
233 -> 234 ;
235 [label="gini = 0.0\nsamples = 23\nvalue = [23, 0]\nclass = No"] ;
234 -> 235 ;
236 [label="marital_single <= 0.5\ngini = 0.32\nsamples = 5\nvalue = [4, 1]\nclass = No"] ;
234 -> 236 ;
237 [label="duration <= 103.5\ngini = 0.5\nsamples = 2\nvalue = [1, 1]\nclass = No"] ;
236 -> 237 ;
238 [label="gini = 0.0\nsamples = 1\nvalue = [0, 1]\nclass = Yes"] ;
237 -> 238 ;
239 [label="gini = 0.0\nsamples = 1\nvalue = [1, 0]\nclass = No"] ;
237 -> 239 ;
240 [label="gini = 0.0\nsamples = 3\nvalue = [3, 0]\nclass = No"] ;
236 -> 240 ;
241 [label="duration <= 109.0\ngini = 0.444\nsamples = 3\nvalue = [2, 1]\nclass = No"] ;
233 -> 241 ;
242 [label="gini = 0.0\nsamples = 1\nvalue = [0, 1]\nclass = Yes"] ;
241 -> 242 ;
243 [label="gini = 0.0\nsamples = 2\nvalue = [2, 0]\nclass = No"] ;
241 -> 243 ;
244 [label="gini = 0.0\nsamples = 1\nvalue = [0, 1]\nclass = Yes"] ;
232 -> 244 ;
245 [label="gini = 0.0\nsamples = 35\nvalue = [35, 0]\nclass = No"] ;
231 -> 245 ;
246 [label="gini = 0.0\nsamples = 89\nvalue = [89, 0]\nclass = No"] ;
230 -> 246 ;
247 [label="gini = 0.0\nsamples = 221\nvalue = [221, 0]\nclass = No"] ;
229 -> 247 ;
248 [label="day <= 20.5\ngini = 0.165\nsamples = 22\nvalue = [20, 2]\nclass = No"] ;
228 -> 248 ;
249 [label="balance <= 2489.0\ngini = 0.095\nsamples = 20\nvalue = [19, 1]\nclass = No"] ;
248 -> 249 ;
250 [label="gini = 0.0\nsamples = 15\nvalue = [15, 0]\nclass = No"] ;
249 -> 250 ;
251 [label="balance <= 2919.5\ngini = 0.32\nsamples = 5\nvalue = [4, 1]\nclass = No"] ;
249 -> 251 ;
252 [label="gini = 0.0\nsamples = 1\nvalue = [0, 1]\nclass = Yes"] ;
251 -> 252 ;
253 [label="gini = 0.0\nsamples = 4\nvalue = [4, 0]\nclass = No"] ;
251 -> 253 ;
254 [label="marital_married <= 0.5\ngini = 0.5\nsamples = 2\nvalue = [1, 1]\nclass = No"] ;
248 -> 254 ;
255 [label="gini = 0.0\nsamples = 1\nvalue = [1, 0]\nclass = No"] ;
254 -> 255 ;
256 [label="gini = 0.0\nsamples = 1\nvalue = [0, 1]\nclass = Yes"] ;
254 -> 256 ;
257 [label="gini = 0.0\nsamples = 220\nvalue = [220, 0]\nclass = No"] ;
227 -> 257 ;
258 [label="balance <= 9721.5\ngini = 0.095\nsamples = 20\nvalue = [19, 1]\nclass = No"] ;
226 -> 258 ;
259 [label="gini = 0.0\nsamples = 1\nvalue = [0, 1]\nclass = Yes"] ;
258 -> 259 ;
260 [label="gini = 0.0\nsamples = 19\nvalue = [19, 0]\nclass = No"] ;
258 -> 260 ;
261 [label="gini = 0.0\nsamples = 1144\nvalue = [1144, 0]\nclass = No"] ;
205 -> 261 ;
262 [label="education_secondary <= 0.5\ngini = 0.375\nsamples = 4\nvalue = [3, 1]\nclass = No"] ;
110 -> 262 ;
263 [label="gini = 0.0\nsamples = 3\nvalue = [3, 0]\nclass = No"] ;
262 -> 263 ;
264 [label="gini = 0.0\nsamples = 1\nvalue = [0, 1]\nclass = Yes"] ;
262 -> 264 ;
265 [label="day <= 3.5\ngini = 0.13\nsamples = 100\nvalue = [93, 7]\nclass = No"] ;
109 -> 265 ;
266 [label="gini = 0.0\nsamples = 1\nvalue = [0, 1]\nclass = Yes"] ;
265 -> 266 ;
267 [label="age <= 59.5\ngini = 0.114\nsamples = 99\nvalue = [93, 6]\nclass = No"] ;
265 -> 267 ;
268 [label="pdays <= 184.5\ngini = 0.098\nsamples = 97\nvalue = [92, 5]\nclass = No"] ;
267 -> 268 ;
269 [label="day <= 24.0\ngini = 0.408\nsamples = 7\nvalue = [5, 2]\nclass = No"] ;
268 -> 269 ;
270 [label="pdays <= 182.5\ngini = 0.444\nsamples = 3\nvalue = [1, 2]\nclass = Yes"] ;
269 -> 270 ;
271 [label="gini = 0.0\nsamples = 1\nvalue = [1, 0]\nclass = No"] ;
270 -> 271 ;
272 [label="gini = 0.0\nsamples = 2\nvalue = [0, 2]\nclass = Yes"] ;
270 -> 272 ;
273 [label="gini = 0.0\nsamples = 4\nvalue = [4, 0]\nclass = No"] ;
269 -> 273 ;
274 [label="month_nov <= 0.5\ngini = 0.064\nsamples = 90\nvalue = [87, 3]\nclass = No"] ;
268 -> 274 ;
275 [label="job_technician <= 0.5\ngini = 0.024\nsamples = 81\nvalue = [80, 1]\nclass = No"] ;
274 -> 275 ;
276 [label="gini = 0.0\nsamples = 66\nvalue = [66, 0]\nclass = No"] ;
275 -> 276 ;
277 [label="age <= 31.5\ngini = 0.124\nsamples = 15\nvalue = [14, 1]\nclass = No"] ;
275 -> 277 ;
278 [label="age <= 30.0\ngini = 0.444\nsamples = 3\nvalue = [2, 1]\nclass = No"] ;
277 -> 278 ;
279 [label="gini = 0.0\nsamples = 2\nvalue = [2, 0]\nclass = No"] ;
278 -> 279 ;
280 [label="gini = 0.0\nsamples = 1\nvalue = [0, 1]\nclass = Yes"] ;
278 -> 280 ;
281 [label="gini = 0.0\nsamples = 12\nvalue = [12, 0]\nclass = No"] ;
277 -> 281 ;
282 [label="day <= 14.0\ngini = 0.346\nsamples = 9\nvalue = [7, 2]\nclass = No"] ;
274 -> 282 ;
283 [label="gini = 0.0\nsamples = 2\nvalue = [0, 2]\nclass = Yes"] ;
282 -> 283 ;
284 [label="gini = 0.0\nsamples = 7\nvalue = [7, 0]\nclass = No"] ;
282 -> 284 ;
285 [label="month_jun <= 0.5\ngini = 0.5\nsamples = 2\nvalue = [1, 1]\nclass = No"] ;
267 -> 285 ;
286 [label="gini = 0.0\nsamples = 1\nvalue = [1, 0]\nclass = No"] ;
285 -> 286 ;
287 [label="gini = 0.0\nsamples = 1\nvalue = [0, 1]\nclass = Yes"] ;
285 -> 287 ;
288 [label="marital_single <= 0.5\ngini = 0.005\nsamples = 5699\nvalue = [5685, 14]\nclass = No"] ;
108 -> 288 ;
289 [label="job_unemployed <= 0.5\ngini = 0.003\nsamples = 4295\nvalue = [4289, 6]\nclass = No"] ;
288 -> 289 ;
290 [label="job_self-employed <= 0.5\ngini = 0.002\nsamples = 4226\nvalue = [4221, 5]\nclass = No"] ;
289 -> 290 ;
291 [label="month_nov <= 0.5\ngini = 0.002\nsamples = 4099\nvalue = [4095, 4]\nclass = No"] ;
290 -> 291 ;
292 [label="day <= 10.5\ngini = 0.001\nsamples = 3615\nvalue = [3613, 2]\nclass = No"] ;
291 -> 292 ;
293 [label="day <= 9.5\ngini = 0.005\nsamples = 874\nvalue = [872, 2]\nclass = No"] ;
292 -> 293 ;
294 [label="marital_married <= 0.5\ngini = 0.002\nsamples = 845\nvalue = [844, 1]\nclass = No"] ;
293 -> 294 ;
295 [label="month_jun <= 0.5\ngini = 0.015\nsamples = 130\nvalue = [129, 1]\nclass = No"] ;
294 -> 295 ;
296 [label="gini = 0.0\nsamples = 105\nvalue = [105, 0]\nclass = No"] ;
295 -> 296 ;
297 [label="day <= 5.5\ngini = 0.077\nsamples = 25\nvalue = [24, 1]\nclass = No"] ;
295 -> 297 ;
298 [label="gini = 0.0\nsamples = 16\nvalue = [16, 0]\nclass = No"] ;
297 -> 298 ;
299 [label="age <= 46.0\ngini = 0.198\nsamples = 9\nvalue = [8, 1]\nclass = No"] ;
297 -> 299 ;
300 [label="gini = 0.0\nsamples = 6\nvalue = [6, 0]\nclass = No"] ;
299 -> 300 ;
301 [label="education_secondary <= 0.5\ngini = 0.444\nsamples = 3\nvalue = [2, 1]\nclass = No"] ;
299 -> 301 ;
302 [label="gini = 0.0\nsamples = 2\nvalue = [2, 0]\nclass = No"] ;
301 -> 302 ;
303 [label="gini = 0.0\nsamples = 1\nvalue = [0, 1]\nclass = Yes"] ;
301 -> 303 ;
304 [label="gini = 0.0\nsamples = 715\nvalue = [715, 0]\nclass = No"] ;
294 -> 304 ;
305 [label="duration <= 45.0\ngini = 0.067\nsamples = 29\nvalue = [28, 1]\nclass = No"] ;
293 -> 305 ;
306 [label="duration <= 38.5\ngini = 0.375\nsamples = 4\nvalue = [3, 1]\nclass = No"] ;
305 -> 306 ;
307 [label="gini = 0.0\nsamples = 3\nvalue = [3, 0]\nclass = No"] ;
306 -> 307 ;
308 [label="gini = 0.0\nsamples = 1\nvalue = [0, 1]\nclass = Yes"] ;
306 -> 308 ;
309 [label="gini = 0.0\nsamples = 25\nvalue = [25, 0]\nclass = No"] ;
305 -> 309 ;
310 [label="gini = 0.0\nsamples = 2741\nvalue = [2741, 0]\nclass = No"] ;
292 -> 310 ;
311 [label="contact_unknown <= 0.5\ngini = 0.008\nsamples = 484\nvalue = [482, 2]\nclass = No"] ;
291 -> 311 ;
312 [label="gini = 0.0\nsamples = 479\nvalue = [479, 0]\nclass = No"] ;
311 -> 312 ;
313 [label="duration <= 83.0\ngini = 0.48\nsamples = 5\nvalue = [3, 2]\nclass = No"] ;
311 -> 313 ;
314 [label="gini = 0.0\nsamples = 3\nvalue = [3, 0]\nclass = No"] ;
313 -> 314 ;
315 [label="gini = 0.0\nsamples = 2\nvalue = [0, 2]\nclass = Yes"] ;
313 -> 315 ;
316 [label="marital_married <= 0.5\ngini = 0.016\nsamples = 127\nvalue = [126, 1]\nclass = No"] ;
290 -> 316 ;
317 [label="balance <= 36.0\ngini = 0.153\nsamples = 12\nvalue = [11, 1]\nclass = No"] ;
316 -> 317 ;
318 [label="education_tertiary <= 0.5\ngini = 0.5\nsamples = 2\nvalue = [1, 1]\nclass = No"] ;
317 -> 318 ;
319 [label="gini = 0.0\nsamples = 1\nvalue = [1, 0]\nclass = No"] ;
318 -> 319 ;
320 [label="gini = 0.0\nsamples = 1\nvalue = [0, 1]\nclass = Yes"] ;
318 -> 320 ;
321 [label="gini = 0.0\nsamples = 10\nvalue = [10, 0]\nclass = No"] ;
317 -> 321 ;
322 [label="gini = 0.0\nsamples = 115\nvalue = [115, 0]\nclass = No"] ;
316 -> 322 ;
323 [label="month_jan <= 0.5\ngini = 0.029\nsamples = 69\nvalue = [68, 1]\nclass = No"] ;
289 -> 323 ;
324 [label="gini = 0.0\nsamples = 65\nvalue = [65, 0]\nclass = No"] ;
323 -> 324 ;
325 [label="age <= 46.0\ngini = 0.375\nsamples = 4\nvalue = [3, 1]\nclass = No"] ;
323 -> 325 ;
326 [label="gini = 0.0\nsamples = 1\nvalue = [0, 1]\nclass = Yes"] ;
325 -> 326 ;
327 [label="gini = 0.0\nsamples = 3\nvalue = [3, 0]\nclass = No"] ;
325 -> 327 ;
328 [label="age <= 33.5\ngini = 0.011\nsamples = 1404\nvalue = [1396, 8]\nclass = No"] ;
288 -> 328 ;
329 [label="education_unknown <= 0.5\ngini = 0.022\nsamples = 630\nvalue = [623, 7]\nclass = No"] ;
328 -> 329 ;
330 [label="poutcome_other <= 0.5\ngini = 0.019\nsamples = 620\nvalue = [614, 6]\nclass = No"] ;
329 -> 330 ;
331 [label="job_management <= 0.5\ngini = 0.014\nsamples = 582\nvalue = [578, 4]\nclass = No"] ;
330 -> 331 ;
332 [label="balance <= 1994.0\ngini = 0.004\nsamples = 459\nvalue = [458, 1]\nclass = No"] ;
331 -> 332 ;
333 [label="gini = 0.0\nsamples = 404\nvalue = [404, 0]\nclass = No"] ;
332 -> 333 ;
334 [label="balance <= 2006.0\ngini = 0.036\nsamples = 55\nvalue = [54, 1]\nclass = No"] ;
332 -> 334 ;
335 [label="gini = 0.0\nsamples = 1\nvalue = [0, 1]\nclass = Yes"] ;
334 -> 335 ;
336 [label="gini = 0.0\nsamples = 54\nvalue = [54, 0]\nclass = No"] ;
334 -> 336 ;
337 [label="previous <= 2.5\ngini = 0.048\nsamples = 123\nvalue = [120, 3]\nclass = No"] ;
331 -> 337 ;
338 [label="age <= 31.5\ngini = 0.034\nsamples = 115\nvalue = [113, 2]\nclass = No"] ;
337 -> 338 ;
339 [label="gini = 0.0\nsamples = 75\nvalue = [75, 0]\nclass = No"] ;
338 -> 339 ;
340 [label="month_jun <= 0.5\ngini = 0.095\nsamples = 40\nvalue = [38, 2]\nclass = No"] ;
338 -> 340 ;
341 [label="duration <= 109.5\ngini = 0.053\nsamples = 37\nvalue = [36, 1]\nclass = No"] ;
340 -> 341 ;
342 [label="gini = 0.0\nsamples = 28\nvalue = [28, 0]\nclass = No"] ;
341 -> 342 ;
343 [label="duration <= 114.5\ngini = 0.198\nsamples = 9\nvalue = [8, 1]\nclass = No"] ;
341 -> 343 ;
344 [label="gini = 0.0\nsamples = 1\nvalue = [0, 1]\nclass = Yes"] ;
343 -> 344 ;
345 [label="gini = 0.0\nsamples = 8\nvalue = [8, 0]\nclass = No"] ;
343 -> 345 ;
346 [label="duration <= 84.0\ngini = 0.444\nsamples = 3\nvalue = [2, 1]\nclass = No"] ;
340 -> 346 ;
347 [label="gini = 0.0\nsamples = 2\nvalue = [2, 0]\nclass = No"] ;
346 -> 347 ;
348 [label="gini = 0.0\nsamples = 1\nvalue = [0, 1]\nclass = Yes"] ;
346 -> 348 ;
349 [label="day <= 21.0\ngini = 0.219\nsamples = 8\nvalue = [7, 1]\nclass = No"] ;
337 -> 349 ;
350 [label="gini = 0.0\nsamples = 7\nvalue = [7, 0]\nclass = No"] ;
349 -> 350 ;
351 [label="gini = 0.0\nsamples = 1\nvalue = [0, 1]\nclass = Yes"] ;
349 -> 351 ;
352 [label="contact_unknown <= 0.5\ngini = 0.1\nsamples = 38\nvalue = [36, 2]\nclass = No"] ;
330 -> 352 ;
353 [label="balance <= 943.5\ngini = 0.053\nsamples = 37\nvalue = [36, 1]\nclass = No"] ;
352 -> 353 ;
354 [label="gini = 0.0\nsamples = 32\nvalue = [32, 0]\nclass = No"] ;
353 -> 354 ;
355 [label="duration <= 97.0\ngini = 0.32\nsamples = 5\nvalue = [4, 1]\nclass = No"] ;
353 -> 355 ;
356 [label="gini = 0.0\nsamples = 4\nvalue = [4, 0]\nclass = No"] ;
355 -> 356 ;
357 [label="gini = 0.0\nsamples = 1\nvalue = [0, 1]\nclass = Yes"] ;
355 -> 357 ;
358 [label="gini = 0.0\nsamples = 1\nvalue = [0, 1]\nclass = Yes"] ;
352 -> 358 ;
359 [label="age <= 32.5\ngini = 0.18\nsamples = 10\nvalue = [9, 1]\nclass = No"] ;
329 -> 359 ;
360 [label="gini = 0.0\nsamples = 9\nvalue = [9, 0]\nclass = No"] ;
359 -> 360 ;
361 [label="gini = 0.0\nsamples = 1\nvalue = [0, 1]\nclass = Yes"] ;
359 -> 361 ;
362 [label="month_jul <= 0.5\ngini = 0.003\nsamples = 774\nvalue = [773, 1]\nclass = No"] ;
328 -> 362 ;
363 [label="gini = 0.0\nsamples = 689\nvalue = [689, 0]\nclass = No"] ;
362 -> 363 ;
364 [label="day <= 8.5\ngini = 0.023\nsamples = 85\nvalue = [84, 1]\nclass = No"] ;
362 -> 364 ;
365 [label="day <= 7.5\ngini = 0.245\nsamples = 7\nvalue = [6, 1]\nclass = No"] ;
364 -> 365 ;
366 [label="gini = 0.0\nsamples = 6\nvalue = [6, 0]\nclass = No"] ;
365 -> 366 ;
367 [label="gini = 0.0\nsamples = 1\nvalue = [0, 1]\nclass = Yes"] ;
365 -> 367 ;
368 [label="gini = 0.0\nsamples = 78\nvalue = [78, 0]\nclass = No"] ;
364 -> 368 ;
369 [label="age <= 44.0\ngini = 0.124\nsamples = 45\nvalue = [42, 3]\nclass = No"] ;
107 -> 369 ;
370 [label="gini = 0.0\nsamples = 33\nvalue = [33, 0]\nclass = No"] ;
369 -> 370 ;
371 [label="age <= 47.5\ngini = 0.375\nsamples = 12\nvalue = [9, 3]\nclass = No"] ;
369 -> 371 ;
372 [label="duration <= 74.5\ngini = 0.375\nsamples = 4\nvalue = [1, 3]\nclass = Yes"] ;
371 -> 372 ;
373 [label="gini = 0.0\nsamples = 1\nvalue = [1, 0]\nclass = No"] ;
372 -> 373 ;
374 [label="gini = 0.0\nsamples = 3\nvalue = [0, 3]\nclass = Yes"] ;
372 -> 374 ;
375 [label="gini = 0.0\nsamples = 8\nvalue = [8, 0]\nclass = No"] ;
371 -> 375 ;
376 [label="pdays <= 396.5\ngini = 0.145\nsamples = 38\nvalue = [35, 3]\nclass = No"] ;
80 -> 376 ;
377 [label="duration <= 106.5\ngini = 0.5\nsamples = 4\nvalue = [2, 2]\nclass = No"] ;
376 -> 377 ;
378 [label="gini = 0.0\nsamples = 2\nvalue = [0, 2]\nclass = Yes"] ;
377 -> 378 ;
379 [label="gini = 0.0\nsamples = 2\nvalue = [2, 0]\nclass = No"] ;
377 -> 379 ;
380 [label="balance <= 3.0\ngini = 0.057\nsamples = 34\nvalue = [33, 1]\nclass = No"] ;
376 -> 380 ;
381 [label="housing <= 0.5\ngini = 0.5\nsamples = 2\nvalue = [1, 1]\nclass = No"] ;
380 -> 381 ;
382 [label="gini = 0.0\nsamples = 1\nvalue = [1, 0]\nclass = No"] ;
381 -> 382 ;
383 [label="gini = 0.0\nsamples = 1\nvalue = [0, 1]\nclass = Yes"] ;
381 -> 383 ;
384 [label="gini = 0.0\nsamples = 32\nvalue = [32, 0]\nclass = No"] ;
380 -> 384 ;
385 [label="day <= 11.5\ngini = 0.063\nsamples = 678\nvalue = [656, 22]\nclass = No"] ;
79 -> 385 ;
386 [label="pdays <= 349.5\ngini = 0.031\nsamples = 629\nvalue = [619, 10]\nclass = No"] ;
385 -> 386 ;
387 [label="duration <= 122.5\ngini = 0.025\nsamples = 627\nvalue = [619, 8]\nclass = No"] ;
386 -> 387 ;
388 [label="day <= 9.5\ngini = 0.011\nsamples = 529\nvalue = [526, 3]\nclass = No"] ;
387 -> 388 ;
389 [label="balance <= 989.0\ngini = 0.008\nsamples = 514\nvalue = [512, 2]\nclass = No"] ;
388 -> 389 ;
390 [label="gini = 0.0\nsamples = 389\nvalue = [389, 0]\nclass = No"] ;
389 -> 390 ;
391 [label="balance <= 993.5\ngini = 0.031\nsamples = 125\nvalue = [123, 2]\nclass = No"] ;
389 -> 391 ;
392 [label="gini = 0.0\nsamples = 1\nvalue = [0, 1]\nclass = Yes"] ;
391 -> 392 ;
393 [label="day <= 7.0\ngini = 0.016\nsamples = 124\nvalue = [123, 1]\nclass = No"] ;
391 -> 393 ;
394 [label="gini = 0.0\nsamples = 105\nvalue = [105, 0]\nclass = No"] ;
393 -> 394 ;
395 [label="day <= 8.5\ngini = 0.1\nsamples = 19\nvalue = [18, 1]\nclass = No"] ;
393 -> 395 ;
396 [label="education_tertiary <= 0.5\ngini = 0.5\nsamples = 2\nvalue = [1, 1]\nclass = No"] ;
395 -> 396 ;
397 [label="gini = 0.0\nsamples = 1\nvalue = [1, 0]\nclass = No"] ;
396 -> 397 ;
398 [label="gini = 0.0\nsamples = 1\nvalue = [0, 1]\nclass = Yes"] ;
396 -> 398 ;
399 [label="gini = 0.0\nsamples = 17\nvalue = [17, 0]\nclass = No"] ;
395 -> 399 ;
400 [label="balance <= 49.5\ngini = 0.124\nsamples = 15\nvalue = [14, 1]\nclass = No"] ;
388 -> 400 ;
401 [label="housing <= 0.5\ngini = 0.375\nsamples = 4\nvalue = [3, 1]\nclass = No"] ;
400 -> 401 ;
402 [label="gini = 0.0\nsamples = 3\nvalue = [3, 0]\nclass = No"] ;
401 -> 402 ;
403 [label="gini = 0.0\nsamples = 1\nvalue = [0, 1]\nclass = Yes"] ;
401 -> 403 ;
404 [label="gini = 0.0\nsamples = 11\nvalue = [11, 0]\nclass = No"] ;
400 -> 404 ;
405 [label="marital_single <= 0.5\ngini = 0.097\nsamples = 98\nvalue = [93, 5]\nclass = No"] ;
387 -> 405 ;
406 [label="campaign <= 8.5\ngini = 0.027\nsamples = 74\nvalue = [73, 1]\nclass = No"] ;
405 -> 406 ;
407 [label="gini = 0.0\nsamples = 72\nvalue = [72, 0]\nclass = No"] ;
406 -> 407 ;
408 [label="duration <= 135.0\ngini = 0.5\nsamples = 2\nvalue = [1, 1]\nclass = No"] ;
406 -> 408 ;
409 [label="gini = 0.0\nsamples = 1\nvalue = [1, 0]\nclass = No"] ;
408 -> 409 ;
410 [label="gini = 0.0\nsamples = 1\nvalue = [0, 1]\nclass = Yes"] ;
408 -> 410 ;
411 [label="duration <= 130.0\ngini = 0.278\nsamples = 24\nvalue = [20, 4]\nclass = No"] ;
405 -> 411 ;
412 [label="balance <= 720.5\ngini = 0.463\nsamples = 11\nvalue = [7, 4]\nclass = No"] ;
411 -> 412 ;
413 [label="day <= 7.0\ngini = 0.346\nsamples = 9\nvalue = [7, 2]\nclass = No"] ;
412 -> 413 ;
414 [label="gini = 0.0\nsamples = 6\nvalue = [6, 0]\nclass = No"] ;
413 -> 414 ;
415 [label="age <= 28.5\ngini = 0.444\nsamples = 3\nvalue = [1, 2]\nclass = Yes"] ;
413 -> 415 ;
416 [label="gini = 0.0\nsamples = 1\nvalue = [1, 0]\nclass = No"] ;
415 -> 416 ;
417 [label="gini = 0.0\nsamples = 2\nvalue = [0, 2]\nclass = Yes"] ;
415 -> 417 ;
418 [label="gini = 0.0\nsamples = 2\nvalue = [0, 2]\nclass = Yes"] ;
412 -> 418 ;
419 [label="gini = 0.0\nsamples = 13\nvalue = [13, 0]\nclass = No"] ;
411 -> 419 ;
420 [label="gini = 0.0\nsamples = 2\nvalue = [0, 2]\nclass = Yes"] ;
386 -> 420 ;
421 [label="duration <= 76.5\ngini = 0.37\nsamples = 49\nvalue = [37, 12]\nclass = No"] ;
385 -> 421 ;
422 [label="gini = 0.0\nsamples = 16\nvalue = [16, 0]\nclass = No"] ;
421 -> 422 ;
423 [label="age <= 51.5\ngini = 0.463\nsamples = 33\nvalue = [21, 12]\nclass = No"] ;
421 -> 423 ;
424 [label="duration <= 93.5\ngini = 0.499\nsamples = 25\nvalue = [13, 12]\nclass = No"] ;
423 -> 424 ;
425 [label="gini = 0.0\nsamples = 4\nvalue = [0, 4]\nclass = Yes"] ;
424 -> 425 ;
426 [label="day <= 23.5\ngini = 0.472\nsamples = 21\nvalue = [13, 8]\nclass = No"] ;
424 -> 426 ;
427 [label="balance <= 2753.0\ngini = 0.498\nsamples = 15\nvalue = [7, 8]\nclass = Yes"] ;
426 -> 427 ;
428 [label="balance <= 339.0\ngini = 0.42\nsamples = 10\nvalue = [3, 7]\nclass = Yes"] ;
427 -> 428 ;
429 [label="gini = 0.0\nsamples = 2\nvalue = [2, 0]\nclass = No"] ;
428 -> 429 ;
430 [label="job_unemployed <= 0.5\ngini = 0.219\nsamples = 8\nvalue = [1, 7]\nclass = Yes"] ;
428 -> 430 ;
431 [label="gini = 0.0\nsamples = 7\nvalue = [0, 7]\nclass = Yes"] ;
430 -> 431 ;
432 [label="gini = 0.0\nsamples = 1\nvalue = [1, 0]\nclass = No"] ;
430 -> 432 ;
433 [label="duration <= 137.5\ngini = 0.32\nsamples = 5\nvalue = [4, 1]\nclass = No"] ;
427 -> 433 ;
434 [label="gini = 0.0\nsamples = 4\nvalue = [4, 0]\nclass = No"] ;
433 -> 434 ;
435 [label="gini = 0.0\nsamples = 1\nvalue = [0, 1]\nclass = Yes"] ;
433 -> 435 ;
436 [label="gini = 0.0\nsamples = 6\nvalue = [6, 0]\nclass = No"] ;
426 -> 436 ;
437 [label="gini = 0.0\nsamples = 8\nvalue = [8, 0]\nclass = No"] ;
423 -> 437 ;
438 [label="housing <= 0.5\ngini = 0.074\nsamples = 5130\nvalue = [4932, 198]\nclass = No"] ;
6 -> 438 ;
439 [label="pdays <= 41.5\ngini = 0.138\nsamples = 2071\nvalue = [1916, 155]\nclass = No"] ;
438 -> 439 ;
440 [label="age <= 28.5\ngini = 0.111\nsamples = 1874\nvalue = [1764, 110]\nclass = No"] ;
439 -> 440 ;
441 [label="month_jul <= 0.5\ngini = 0.315\nsamples = 148\nvalue = [119, 29]\nclass = No"] ;
440 -> 441 ;
442 [label="day <= 27.5\ngini = 0.384\nsamples = 108\nvalue = [80, 28]\nclass = No"] ;
441 -> 442 ;
443 [label="duration <= 145.0\ngini = 0.458\nsamples = 76\nvalue = [49, 27]\nclass = No"] ;
442 -> 443 ;
444 [label="previous <= 0.5\ngini = 0.278\nsamples = 6\nvalue = [1, 5]\nclass = Yes"] ;
443 -> 444 ;
445 [label="gini = 0.0\nsamples = 5\nvalue = [0, 5]\nclass = Yes"] ;
444 -> 445 ;
446 [label="gini = 0.0\nsamples = 1\nvalue = [1, 0]\nclass = No"] ;
444 -> 446 ;
447 [label="duration <= 162.0\ngini = 0.431\nsamples = 70\nvalue = [48, 22]\nclass = No"] ;
443 -> 447 ;
448 [label="job_self-employed <= 0.5\ngini = 0.26\nsamples = 26\nvalue = [22, 4]\nclass = No"] ;
447 -> 448 ;
449 [label="job_housemaid <= 0.5\ngini = 0.153\nsamples = 24\nvalue = [22, 2]\nclass = No"] ;
448 -> 449 ;
450 [label="day <= 26.5\ngini = 0.083\nsamples = 23\nvalue = [22, 1]\nclass = No"] ;
449 -> 450 ;
451 [label="gini = 0.0\nsamples = 21\nvalue = [21, 0]\nclass = No"] ;
450 -> 451 ;
452 [label="balance <= 2475.0\ngini = 0.5\nsamples = 2\nvalue = [1, 1]\nclass = No"] ;
450 -> 452 ;
453 [label="gini = 0.0\nsamples = 1\nvalue = [0, 1]\nclass = Yes"] ;
452 -> 453 ;
454 [label="gini = 0.0\nsamples = 1\nvalue = [1, 0]\nclass = No"] ;
452 -> 454 ;
455 [label="gini = 0.0\nsamples = 1\nvalue = [0, 1]\nclass = Yes"] ;
449 -> 455 ;
456 [label="gini = 0.0\nsamples = 2\nvalue = [0, 2]\nclass = Yes"] ;
448 -> 456 ;
457 [label="month_may <= 0.5\ngini = 0.483\nsamples = 44\nvalue = [26, 18]\nclass = No"] ;
447 -> 457 ;
458 [label="day <= 3.5\ngini = 0.499\nsamples = 31\nvalue = [15, 16]\nclass = Yes"] ;
457 -> 458 ;
459 [label="duration <= 190.0\ngini = 0.397\nsamples = 11\nvalue = [8, 3]\nclass = No"] ;
458 -> 459 ;
460 [label="balance <= 504.0\ngini = 0.5\nsamples = 6\nvalue = [3, 3]\nclass = No"] ;
459 -> 460 ;
461 [label="gini = 0.0\nsamples = 2\nvalue = [0, 2]\nclass = Yes"] ;
460 -> 461 ;
462 [label="duration <= 182.0\ngini = 0.375\nsamples = 4\nvalue = [3, 1]\nclass = No"] ;
460 -> 462 ;
463 [label="gini = 0.0\nsamples = 3\nvalue = [3, 0]\nclass = No"] ;
462 -> 463 ;
464 [label="gini = 0.0\nsamples = 1\nvalue = [0, 1]\nclass = Yes"] ;
462 -> 464 ;
465 [label="gini = 0.0\nsamples = 5\nvalue = [5, 0]\nclass = No"] ;
459 -> 465 ;
466 [label="marital_single <= 0.5\ngini = 0.455\nsamples = 20\nvalue = [7, 13]\nclass = Yes"] ;
458 -> 466 ;
467 [label="gini = 0.0\nsamples = 2\nvalue = [2, 0]\nclass = No"] ;
466 -> 467 ;
468 [label="loan <= 0.5\ngini = 0.401\nsamples = 18\nvalue = [5, 13]\nclass = Yes"] ;
466 -> 468 ;
469 [label="job_self-employed <= 0.5\ngini = 0.36\nsamples = 17\nvalue = [4, 13]\nclass = Yes"] ;
468 -> 469 ;
470 [label="education_unknown <= 0.5\ngini = 0.305\nsamples = 16\nvalue = [3, 13]\nclass = Yes"] ;
469 -> 470 ;
471 [label="age <= 20.5\ngini = 0.231\nsamples = 15\nvalue = [2, 13]\nclass = Yes"] ;
470 -> 471 ;
472 [label="duration <= 190.5\ngini = 0.5\nsamples = 2\nvalue = [1, 1]\nclass = No"] ;
471 -> 472 ;
473 [label="gini = 0.0\nsamples = 1\nvalue = [0, 1]\nclass = Yes"] ;
472 -> 473 ;
474 [label="gini = 0.0\nsamples = 1\nvalue = [1, 0]\nclass = No"] ;
472 -> 474 ;
475 [label="duration <= 166.0\ngini = 0.142\nsamples = 13\nvalue = [1, 12]\nclass = Yes"] ;
471 -> 475 ;
476 [label="month_jan <= 0.5\ngini = 0.5\nsamples = 2\nvalue = [1, 1]\nclass = No"] ;
475 -> 476 ;
477 [label="gini = 0.0\nsamples = 1\nvalue = [0, 1]\nclass = Yes"] ;
476 -> 477 ;
478 [label="gini = 0.0\nsamples = 1\nvalue = [1, 0]\nclass = No"] ;
476 -> 478 ;
479 [label="gini = 0.0\nsamples = 11\nvalue = [0, 11]\nclass = Yes"] ;
475 -> 479 ;
480 [label="gini = 0.0\nsamples = 1\nvalue = [1, 0]\nclass = No"] ;
470 -> 480 ;
481 [label="gini = 0.0\nsamples = 1\nvalue = [1, 0]\nclass = No"] ;
469 -> 481 ;
482 [label="gini = 0.0\nsamples = 1\nvalue = [1, 0]\nclass = No"] ;
468 -> 482 ;
483 [label="job_technician <= 0.5\ngini = 0.26\nsamples = 13\nvalue = [11, 2]\nclass = No"] ;
457 -> 483 ;
484 [label="day <= 25.5\ngini = 0.153\nsamples = 12\nvalue = [11, 1]\nclass = No"] ;
483 -> 484 ;
485 [label="gini = 0.0\nsamples = 10\nvalue = [10, 0]\nclass = No"] ;
484 -> 485 ;
486 [label="balance <= 658.5\ngini = 0.5\nsamples = 2\nvalue = [1, 1]\nclass = No"] ;
484 -> 486 ;
487 [label="gini = 0.0\nsamples = 1\nvalue = [1, 0]\nclass = No"] ;
486 -> 487 ;
488 [label="gini = 0.0\nsamples = 1\nvalue = [0, 1]\nclass = Yes"] ;
486 -> 488 ;
489 [label="gini = 0.0\nsamples = 1\nvalue = [0, 1]\nclass = Yes"] ;
483 -> 489 ;
490 [label="duration <= 146.5\ngini = 0.061\nsamples = 32\nvalue = [31, 1]\nclass = No"] ;
442 -> 490 ;
491 [label="duration <= 145.5\ngini = 0.444\nsamples = 3\nvalue = [2, 1]\nclass = No"] ;
490 -> 491 ;
492 [label="gini = 0.0\nsamples = 2\nvalue = [2, 0]\nclass = No"] ;
491 -> 492 ;
493 [label="gini = 0.0\nsamples = 1\nvalue = [0, 1]\nclass = Yes"] ;
491 -> 493 ;
494 [label="gini = 0.0\nsamples = 29\nvalue = [29, 0]\nclass = No"] ;
490 -> 494 ;
495 [label="job_student <= 0.5\ngini = 0.049\nsamples = 40\nvalue = [39, 1]\nclass = No"] ;
441 -> 495 ;
496 [label="gini = 0.0\nsamples = 39\nvalue = [39, 0]\nclass = No"] ;
495 -> 496 ;
497 [label="gini = 0.0\nsamples = 1\nvalue = [0, 1]\nclass = Yes"] ;
495 -> 497 ;
498 [label="month_feb <= 0.5\ngini = 0.089\nsamples = 1726\nvalue = [1645, 81]\nclass = No"] ;
440 -> 498 ;
499 [label="day <= 3.5\ngini = 0.077\nsamples = 1620\nvalue = [1555, 65]\nclass = No"] ;
498 -> 499 ;
500 [label="contact_unknown <= 0.5\ngini = 0.271\nsamples = 62\nvalue = [52, 10]\nclass = No"] ;
499 -> 500 ;
501 [label="job_blue-collar <= 0.5\ngini = 0.401\nsamples = 36\nvalue = [26, 10]\nclass = No"] ;
500 -> 501 ;
502 [label="job_management <= 0.5\ngini = 0.305\nsamples = 32\nvalue = [26, 6]\nclass = No"] ;
501 -> 502 ;
503 [label="month_jul <= 0.5\ngini = 0.18\nsamples = 20\nvalue = [18, 2]\nclass = No"] ;
502 -> 503 ;
504 [label="education_secondary <= 0.5\ngini = 0.1\nsamples = 19\nvalue = [18, 1]\nclass = No"] ;
503 -> 504 ;
505 [label="gini = 0.0\nsamples = 13\nvalue = [13, 0]\nclass = No"] ;
504 -> 505 ;
506 [label="campaign <= 1.5\ngini = 0.278\nsamples = 6\nvalue = [5, 1]\nclass = No"] ;
504 -> 506 ;
507 [label="gini = 0.0\nsamples = 4\nvalue = [4, 0]\nclass = No"] ;
506 -> 507 ;
508 [label="month_jun <= 0.5\ngini = 0.5\nsamples = 2\nvalue = [1, 1]\nclass = No"] ;
506 -> 508 ;
509 [label="gini = 0.0\nsamples = 1\nvalue = [1, 0]\nclass = No"] ;
508 -> 509 ;
510 [label="gini = 0.0\nsamples = 1\nvalue = [0, 1]\nclass = Yes"] ;
508 -> 510 ;
511 [label="gini = 0.0\nsamples = 1\nvalue = [0, 1]\nclass = Yes"] ;
503 -> 511 ;
512 [label="education_secondary <= 0.5\ngini = 0.444\nsamples = 12\nvalue = [8, 4]\nclass = No"] ;
502 -> 512 ;
513 [label="day <= 2.5\ngini = 0.397\nsamples = 11\nvalue = [8, 3]\nclass = No"] ;
512 -> 513 ;
514 [label="age <= 51.5\ngini = 0.245\nsamples = 7\nvalue = [6, 1]\nclass = No"] ;
513 -> 514 ;
515 [label="gini = 0.0\nsamples = 5\nvalue = [5, 0]\nclass = No"] ;
514 -> 515 ;
516 [label="balance <= 2179.0\ngini = 0.5\nsamples = 2\nvalue = [1, 1]\nclass = No"] ;
514 -> 516 ;
517 [label="gini = 0.0\nsamples = 1\nvalue = [0, 1]\nclass = Yes"] ;
516 -> 517 ;
518 [label="gini = 0.0\nsamples = 1\nvalue = [1, 0]\nclass = No"] ;
516 -> 518 ;
519 [label="balance <= 2467.0\ngini = 0.5\nsamples = 4\nvalue = [2, 2]\nclass = No"] ;
513 -> 519 ;
520 [label="gini = 0.0\nsamples = 2\nvalue = [0, 2]\nclass = Yes"] ;
519 -> 520 ;
521 [label="gini = 0.0\nsamples = 2\nvalue = [2, 0]\nclass = No"] ;
519 -> 521 ;
522 [label="gini = 0.0\nsamples = 1\nvalue = [0, 1]\nclass = Yes"] ;
512 -> 522 ;
523 [label="gini = 0.0\nsamples = 4\nvalue = [0, 4]\nclass = Yes"] ;
501 -> 523 ;
524 [label="gini = 0.0\nsamples = 26\nvalue = [26, 0]\nclass = No"] ;
500 -> 524 ;
525 [label="campaign <= 1.5\ngini = 0.068\nsamples = 1558\nvalue = [1503, 55]\nclass = No"] ;
499 -> 525 ;
526 [label="contact_unknown <= 0.5\ngini = 0.122\nsamples = 519\nvalue = [485, 34]\nclass = No"] ;
525 -> 526 ;
527 [label="month_jul <= 0.5\ngini = 0.177\nsamples = 347\nvalue = [313, 34]\nclass = No"] ;
526 -> 527 ;
528 [label="day <= 16.5\ngini = 0.229\nsamples = 258\nvalue = [224, 34]\nclass = No"] ;
527 -> 528 ;
529 [label="month_aug <= 0.5\ngini = 0.327\nsamples = 102\nvalue = [81, 21]\nclass = No"] ;
528 -> 529 ;
530 [label="balance <= 4836.5\ngini = 0.491\nsamples = 44\nvalue = [25, 19]\nclass = No"] ;
529 -> 530 ;
531 [label="age <= 51.5\ngini = 0.456\nsamples = 37\nvalue = [24, 13]\nclass = No"] ;
530 -> 531 ;
532 [label="day <= 4.5\ngini = 0.487\nsamples = 31\nvalue = [18, 13]\nclass = No"] ;
531 -> 532 ;
533 [label="gini = 0.0\nsamples = 4\nvalue = [4, 0]\nclass = No"] ;
532 -> 533 ;
534 [label="balance <= 2723.0\ngini = 0.499\nsamples = 27\nvalue = [14, 13]\nclass = No"] ;
532 -> 534 ;
535 [label="month_may <= 0.5\ngini = 0.491\nsamples = 23\nvalue = [10, 13]\nclass = Yes"] ;
534 -> 535 ;
536 [label="month_dec <= 0.5\ngini = 0.415\nsamples = 17\nvalue = [5, 12]\nclass = Yes"] ;
535 -> 536 ;
537 [label="duration <= 177.5\ngini = 0.375\nsamples = 16\nvalue = [4, 12]\nclass = Yes"] ;
536 -> 537 ;
538 [label="balance <= 223.5\ngini = 0.26\nsamples = 13\nvalue = [2, 11]\nclass = Yes"] ;
537 -> 538 ;
539 [label="marital_married <= 0.5\ngini = 0.444\nsamples = 6\nvalue = [2, 4]\nclass = Yes"] ;
538 -> 539 ;
540 [label="gini = 0.0\nsamples = 3\nvalue = [0, 3]\nclass = Yes"] ;
539 -> 540 ;
541 [label="duration <= 167.0\ngini = 0.444\nsamples = 3\nvalue = [2, 1]\nclass = No"] ;
539 -> 541 ;
542 [label="gini = 0.0\nsamples = 2\nvalue = [2, 0]\nclass = No"] ;
541 -> 542 ;
543 [label="gini = 0.0\nsamples = 1\nvalue = [0, 1]\nclass = Yes"] ;
541 -> 543 ;
544 [label="gini = 0.0\nsamples = 7\nvalue = [0, 7]\nclass = Yes"] ;
538 -> 544 ;
545 [label="balance <= 575.5\ngini = 0.444\nsamples = 3\nvalue = [2, 1]\nclass = No"] ;
537 -> 545 ;
546 [label="gini = 0.0\nsamples = 1\nvalue = [0, 1]\nclass = Yes"] ;
545 -> 546 ;
547 [label="gini = 0.0\nsamples = 2\nvalue = [2, 0]\nclass = No"] ;
545 -> 547 ;
548 [label="gini = 0.0\nsamples = 1\nvalue = [1, 0]\nclass = No"] ;
536 -> 548 ;
549 [label="duration <= 189.0\ngini = 0.278\nsamples = 6\nvalue = [5, 1]\nclass = No"] ;
535 -> 549 ;
550 [label="gini = 0.0\nsamples = 5\nvalue = [5, 0]\nclass = No"] ;
549 -> 550 ;
551 [label="gini = 0.0\nsamples = 1\nvalue = [0, 1]\nclass = Yes"] ;
549 -> 551 ;
552 [label="gini = 0.0\nsamples = 4\nvalue = [4, 0]\nclass = No"] ;
534 -> 552 ;
553 [label="gini = 0.0\nsamples = 6\nvalue = [6, 0]\nclass = No"] ;
531 -> 553 ;
554 [label="job_blue-collar <= 0.5\ngini = 0.245\nsamples = 7\nvalue = [1, 6]\nclass = Yes"] ;
530 -> 554 ;
555 [label="gini = 0.0\nsamples = 5\nvalue = [0, 5]\nclass = Yes"] ;
554 -> 555 ;
556 [label="balance <= 6822.5\ngini = 0.5\nsamples = 2\nvalue = [1, 1]\nclass = No"] ;
554 -> 556 ;
557 [label="gini = 0.0\nsamples = 1\nvalue = [0, 1]\nclass = Yes"] ;
556 -> 557 ;
558 [label="gini = 0.0\nsamples = 1\nvalue = [1, 0]\nclass = No"] ;
556 -> 558 ;
559 [label="day <= 13.5\ngini = 0.067\nsamples = 58\nvalue = [56, 2]\nclass = No"] ;
529 -> 559 ;
560 [label="duration <= 184.5\ngini = 0.034\nsamples = 57\nvalue = [56, 1]\nclass = No"] ;
559 -> 560 ;
561 [label="gini = 0.0\nsamples = 46\nvalue = [46, 0]\nclass = No"] ;
560 -> 561 ;
562 [label="duration <= 186.5\ngini = 0.165\nsamples = 11\nvalue = [10, 1]\nclass = No"] ;
560 -> 562 ;
563 [label="gini = 0.0\nsamples = 1\nvalue = [0, 1]\nclass = Yes"] ;
562 -> 563 ;
564 [label="gini = 0.0\nsamples = 10\nvalue = [10, 0]\nclass = No"] ;
562 -> 564 ;
565 [label="gini = 0.0\nsamples = 1\nvalue = [0, 1]\nclass = Yes"] ;
559 -> 565 ;
566 [label="month_jun <= 0.5\ngini = 0.153\nsamples = 156\nvalue = [143, 13]\nclass = No"] ;
528 -> 566 ;
567 [label="month_nov <= 0.5\ngini = 0.133\nsamples = 153\nvalue = [142, 11]\nclass = No"] ;
566 -> 567 ;
568 [label="month_jan <= 0.5\ngini = 0.223\nsamples = 86\nvalue = [75, 11]\nclass = No"] ;
567 -> 568 ;
569 [label="balance <= 703.5\ngini = 0.316\nsamples = 56\nvalue = [45, 11]\nclass = No"] ;
568 -> 569 ;
570 [label="loan <= 0.5\ngini = 0.161\nsamples = 34\nvalue = [31, 3]\nclass = No"] ;
569 -> 570 ;
571 [label="job_services <= 0.5\ngini = 0.114\nsamples = 33\nvalue = [31, 2]\nclass = No"] ;
570 -> 571 ;
572 [label="age <= 58.0\ngini = 0.064\nsamples = 30\nvalue = [29, 1]\nclass = No"] ;
571 -> 572 ;
573 [label="gini = 0.0\nsamples = 27\nvalue = [27, 0]\nclass = No"] ;
572 -> 573 ;
574 [label="balance <= 280.0\ngini = 0.444\nsamples = 3\nvalue = [2, 1]\nclass = No"] ;
572 -> 574 ;
575 [label="gini = 0.0\nsamples = 1\nvalue = [0, 1]\nclass = Yes"] ;
574 -> 575 ;
576 [label="gini = 0.0\nsamples = 2\nvalue = [2, 0]\nclass = No"] ;
574 -> 576 ;
577 [label="duration <= 157.0\ngini = 0.444\nsamples = 3\nvalue = [2, 1]\nclass = No"] ;
571 -> 577 ;
578 [label="gini = 0.0\nsamples = 1\nvalue = [0, 1]\nclass = Yes"] ;
577 -> 578 ;
579 [label="gini = 0.0\nsamples = 2\nvalue = [2, 0]\nclass = No"] ;
577 -> 579 ;
580 [label="gini = 0.0\nsamples = 1\nvalue = [0, 1]\nclass = Yes"] ;
570 -> 580 ;
581 [label="duration <= 162.5\ngini = 0.463\nsamples = 22\nvalue = [14, 8]\nclass = No"] ;
569 -> 581 ;
582 [label="gini = 0.0\nsamples = 12\nvalue = [12, 0]\nclass = No"] ;
581 -> 582 ;
583 [label="job_technician <= 0.5\ngini = 0.32\nsamples = 10\nvalue = [2, 8]\nclass = Yes"] ;
581 -> 583 ;
584 [label="day <= 28.5\ngini = 0.198\nsamples = 9\nvalue = [1, 8]\nclass = Yes"] ;
583 -> 584 ;
585 [label="gini = 0.0\nsamples = 7\nvalue = [0, 7]\nclass = Yes"] ;
584 -> 585 ;
586 [label="marital_married <= 0.5\ngini = 0.5\nsamples = 2\nvalue = [1, 1]\nclass = No"] ;
584 -> 586 ;
587 [label="gini = 0.0\nsamples = 1\nvalue = [0, 1]\nclass = Yes"] ;
586 -> 587 ;
588 [label="gini = 0.0\nsamples = 1\nvalue = [1, 0]\nclass = No"] ;
586 -> 588 ;
589 [label="gini = 0.0\nsamples = 1\nvalue = [1, 0]\nclass = No"] ;
583 -> 589 ;
590 [label="gini = 0.0\nsamples = 30\nvalue = [30, 0]\nclass = No"] ;
568 -> 590 ;
591 [label="gini = 0.0\nsamples = 67\nvalue = [67, 0]\nclass = No"] ;
567 -> 591 ;
592 [label="age <= 47.0\ngini = 0.444\nsamples = 3\nvalue = [1, 2]\nclass = Yes"] ;
566 -> 592 ;
593 [label="gini = 0.0\nsamples = 1\nvalue = [1, 0]\nclass = No"] ;
592 -> 593 ;
594 [label="gini = 0.0\nsamples = 2\nvalue = [0, 2]\nclass = Yes"] ;
592 -> 594 ;
595 [label="gini = 0.0\nsamples = 89\nvalue = [89, 0]\nclass = No"] ;
527 -> 595 ;
596 [label="gini = 0.0\nsamples = 172\nvalue = [172, 0]\nclass = No"] ;
526 -> 596 ;
597 [label="month_dec <= 0.5\ngini = 0.04\nsamples = 1039\nvalue = [1018, 21]\nclass = No"] ;
525 -> 597 ;
598 [label="age <= 44.5\ngini = 0.038\nsamples = 1037\nvalue = [1017, 20]\nclass = No"] ;
597 -> 598 ;
599 [label="month_aug <= 0.5\ngini = 0.067\nsamples = 550\nvalue = [531, 19]\nclass = No"] ;
598 -> 599 ;
600 [label="month_jul <= 0.5\ngini = 0.11\nsamples = 292\nvalue = [275, 17]\nclass = No"] ;
599 -> 600 ;
601 [label="contact_unknown <= 0.5\ngini = 0.172\nsamples = 179\nvalue = [162, 17]\nclass = No"] ;
600 -> 601 ;
602 [label="day <= 17.5\ngini = 0.314\nsamples = 82\nvalue = [66, 16]\nclass = No"] ;
601 -> 602 ;
603 [label="campaign <= 2.5\ngini = 0.499\nsamples = 23\nvalue = [11, 12]\nclass = Yes"] ;
602 -> 603 ;
604 [label="job_technician <= 0.5\ngini = 0.457\nsamples = 17\nvalue = [11, 6]\nclass = No"] ;
603 -> 604 ;
605 [label="duration <= 164.0\ngini = 0.355\nsamples = 13\nvalue = [10, 3]\nclass = No"] ;
604 -> 605 ;
606 [label="gini = 0.0\nsamples = 7\nvalue = [7, 0]\nclass = No"] ;
605 -> 606 ;
607 [label="balance <= 1063.5\ngini = 0.5\nsamples = 6\nvalue = [3, 3]\nclass = No"] ;
605 -> 607 ;
608 [label="gini = 0.0\nsamples = 2\nvalue = [2, 0]\nclass = No"] ;
607 -> 608 ;
609 [label="month_may <= 0.5\ngini = 0.375\nsamples = 4\nvalue = [1, 3]\nclass = Yes"] ;
607 -> 609 ;
610 [label="gini = 0.0\nsamples = 3\nvalue = [0, 3]\nclass = Yes"] ;
609 -> 610 ;
611 [label="gini = 0.0\nsamples = 1\nvalue = [1, 0]\nclass = No"] ;
609 -> 611 ;
612 [label="day <= 16.5\ngini = 0.375\nsamples = 4\nvalue = [1, 3]\nclass = Yes"] ;
604 -> 612 ;
613 [label="gini = 0.0\nsamples = 3\nvalue = [0, 3]\nclass = Yes"] ;
612 -> 613 ;
614 [label="gini = 0.0\nsamples = 1\nvalue = [1, 0]\nclass = No"] ;
612 -> 614 ;
615 [label="gini = 0.0\nsamples = 6\nvalue = [0, 6]\nclass = Yes"] ;
603 -> 615 ;
616 [label="balance <= 6058.5\ngini = 0.126\nsamples = 59\nvalue = [55, 4]\nclass = No"] ;
602 -> 616 ;
617 [label="month_nov <= 0.5\ngini = 0.1\nsamples = 57\nvalue = [54, 3]\nclass = No"] ;
616 -> 617 ;
618 [label="balance <= 332.5\ngini = 0.211\nsamples = 25\nvalue = [22, 3]\nclass = No"] ;
617 -> 618 ;
619 [label="day <= 28.5\ngini = 0.444\nsamples = 6\nvalue = [4, 2]\nclass = No"] ;
618 -> 619 ;
620 [label="age <= 41.5\ngini = 0.444\nsamples = 3\nvalue = [1, 2]\nclass = Yes"] ;
619 -> 620 ;
621 [label="gini = 0.0\nsamples = 2\nvalue = [0, 2]\nclass = Yes"] ;
620 -> 621 ;
622 [label="gini = 0.0\nsamples = 1\nvalue = [1, 0]\nclass = No"] ;
620 -> 622 ;
623 [label="gini = 0.0\nsamples = 3\nvalue = [3, 0]\nclass = No"] ;
619 -> 623 ;
624 [label="day <= 21.0\ngini = 0.1\nsamples = 19\nvalue = [18, 1]\nclass = No"] ;
618 -> 624 ;
625 [label="duration <= 159.0\ngini = 0.444\nsamples = 3\nvalue = [2, 1]\nclass = No"] ;
624 -> 625 ;
626 [label="gini = 0.0\nsamples = 1\nvalue = [0, 1]\nclass = Yes"] ;
625 -> 626 ;
627 [label="gini = 0.0\nsamples = 2\nvalue = [2, 0]\nclass = No"] ;
625 -> 627 ;
628 [label="gini = 0.0\nsamples = 16\nvalue = [16, 0]\nclass = No"] ;
624 -> 628 ;
629 [label="gini = 0.0\nsamples = 32\nvalue = [32, 0]\nclass = No"] ;
617 -> 629 ;
630 [label="balance <= 6763.0\ngini = 0.5\nsamples = 2\nvalue = [1, 1]\nclass = No"] ;
616 -> 630 ;
631 [label="gini = 0.0\nsamples = 1\nvalue = [0, 1]\nclass = Yes"] ;
630 -> 631 ;
632 [label="gini = 0.0\nsamples = 1\nvalue = [1, 0]\nclass = No"] ;
630 -> 632 ;
633 [label="month_nov <= 0.5\ngini = 0.02\nsamples = 97\nvalue = [96, 1]\nclass = No"] ;
601 -> 633 ;
634 [label="gini = 0.0\nsamples = 95\nvalue = [95, 0]\nclass = No"] ;
633 -> 634 ;
635 [label="balance <= 543.5\ngini = 0.5\nsamples = 2\nvalue = [1, 1]\nclass = No"] ;
633 -> 635 ;
636 [label="gini = 0.0\nsamples = 1\nvalue = [1, 0]\nclass = No"] ;
635 -> 636 ;
637 [label="gini = 0.0\nsamples = 1\nvalue = [0, 1]\nclass = Yes"] ;
635 -> 637 ;
638 [label="gini = 0.0\nsamples = 113\nvalue = [113, 0]\nclass = No"] ;
600 -> 638 ;
639 [label="job_services <= 0.5\ngini = 0.015\nsamples = 258\nvalue = [256, 2]\nclass = No"] ;
599 -> 639 ;
640 [label="duration <= 192.5\ngini = 0.008\nsamples = 253\nvalue = [252, 1]\nclass = No"] ;
639 -> 640 ;
641 [label="gini = 0.0\nsamples = 220\nvalue = [220, 0]\nclass = No"] ;
640 -> 641 ;
642 [label="duration <= 193.5\ngini = 0.059\nsamples = 33\nvalue = [32, 1]\nclass = No"] ;
640 -> 642 ;
643 [label="day <= 10.0\ngini = 0.444\nsamples = 3\nvalue = [2, 1]\nclass = No"] ;
642 -> 643 ;
644 [label="gini = 0.0\nsamples = 1\nvalue = [0, 1]\nclass = Yes"] ;
643 -> 644 ;
645 [label="gini = 0.0\nsamples = 2\nvalue = [2, 0]\nclass = No"] ;
643 -> 645 ;
646 [label="gini = 0.0\nsamples = 30\nvalue = [30, 0]\nclass = No"] ;
642 -> 646 ;
647 [label="day <= 17.0\ngini = 0.32\nsamples = 5\nvalue = [4, 1]\nclass = No"] ;
639 -> 647 ;
648 [label="gini = 0.0\nsamples = 1\nvalue = [0, 1]\nclass = Yes"] ;
647 -> 648 ;
649 [label="gini = 0.0\nsamples = 4\nvalue = [4, 0]\nclass = No"] ;
647 -> 649 ;
650 [label="age <= 59.5\ngini = 0.004\nsamples = 487\nvalue = [486, 1]\nclass = No"] ;
598 -> 650 ;
651 [label="gini = 0.0\nsamples = 472\nvalue = [472, 0]\nclass = No"] ;
650 -> 651 ;
652 [label="duration <= 185.0\ngini = 0.124\nsamples = 15\nvalue = [14, 1]\nclass = No"] ;
650 -> 652 ;
653 [label="gini = 0.0\nsamples = 14\nvalue = [14, 0]\nclass = No"] ;
652 -> 653 ;
654 [label="gini = 0.0\nsamples = 1\nvalue = [0, 1]\nclass = Yes"] ;
652 -> 654 ;
655 [label="job_student <= 0.5\ngini = 0.5\nsamples = 2\nvalue = [1, 1]\nclass = No"] ;
597 -> 655 ;
656 [label="gini = 0.0\nsamples = 1\nvalue = [0, 1]\nclass = Yes"] ;
655 -> 656 ;
657 [label="gini = 0.0\nsamples = 1\nvalue = [1, 0]\nclass = No"] ;
655 -> 657 ;
658 [label="day <= 9.5\ngini = 0.256\nsamples = 106\nvalue = [90, 16]\nclass = No"] ;
498 -> 658 ;
659 [label="day <= 5.5\ngini = 0.139\nsamples = 93\nvalue = [86, 7]\nclass = No"] ;
658 -> 659 ;
660 [label="job_self-employed <= 0.5\ngini = 0.075\nsamples = 77\nvalue = [74, 3]\nclass = No"] ;
659 -> 660 ;
661 [label="campaign <= 2.5\ngini = 0.053\nsamples = 74\nvalue = [72, 2]\nclass = No"] ;
660 -> 661 ;
662 [label="gini = 0.0\nsamples = 61\nvalue = [61, 0]\nclass = No"] ;
661 -> 662 ;
663 [label="loan <= 0.5\ngini = 0.26\nsamples = 13\nvalue = [11, 2]\nclass = No"] ;
661 -> 663 ;
664 [label="duration <= 161.5\ngini = 0.165\nsamples = 11\nvalue = [10, 1]\nclass = No"] ;
663 -> 664 ;
665 [label="marital_single <= 0.5\ngini = 0.5\nsamples = 2\nvalue = [1, 1]\nclass = No"] ;
664 -> 665 ;
666 [label="gini = 0.0\nsamples = 1\nvalue = [0, 1]\nclass = Yes"] ;
665 -> 666 ;
667 [label="gini = 0.0\nsamples = 1\nvalue = [1, 0]\nclass = No"] ;
665 -> 667 ;
668 [label="gini = 0.0\nsamples = 9\nvalue = [9, 0]\nclass = No"] ;
664 -> 668 ;
669 [label="day <= 4.0\ngini = 0.5\nsamples = 2\nvalue = [1, 1]\nclass = No"] ;
663 -> 669 ;
670 [label="gini = 0.0\nsamples = 1\nvalue = [0, 1]\nclass = Yes"] ;
669 -> 670 ;
671 [label="gini = 0.0\nsamples = 1\nvalue = [1, 0]\nclass = No"] ;
669 -> 671 ;
672 [label="age <= 31.5\ngini = 0.444\nsamples = 3\nvalue = [2, 1]\nclass = No"] ;
660 -> 672 ;
673 [label="gini = 0.0\nsamples = 1\nvalue = [0, 1]\nclass = Yes"] ;
672 -> 673 ;
674 [label="gini = 0.0\nsamples = 2\nvalue = [2, 0]\nclass = No"] ;
672 -> 674 ;
675 [label="job_management <= 0.5\ngini = 0.375\nsamples = 16\nvalue = [12, 4]\nclass = No"] ;
659 -> 675 ;
676 [label="balance <= 4087.5\ngini = 0.153\nsamples = 12\nvalue = [11, 1]\nclass = No"] ;
675 -> 676 ;
677 [label="gini = 0.0\nsamples = 11\nvalue = [11, 0]\nclass = No"] ;
676 -> 677 ;
678 [label="gini = 0.0\nsamples = 1\nvalue = [0, 1]\nclass = Yes"] ;
676 -> 678 ;
679 [label="education_tertiary <= 0.5\ngini = 0.375\nsamples = 4\nvalue = [1, 3]\nclass = Yes"] ;
675 -> 679 ;
680 [label="gini = 0.0\nsamples = 1\nvalue = [1, 0]\nclass = No"] ;
679 -> 680 ;
681 [label="gini = 0.0\nsamples = 3\nvalue = [0, 3]\nclass = Yes"] ;
679 -> 681 ;
682 [label="job_self-employed <= 0.5\ngini = 0.426\nsamples = 13\nvalue = [4, 9]\nclass = Yes"] ;
658 -> 682 ;
683 [label="balance <= 252.5\ngini = 0.298\nsamples = 11\nvalue = [2, 9]\nclass = Yes"] ;
682 -> 683 ;
684 [label="gini = 0.0\nsamples = 1\nvalue = [1, 0]\nclass = No"] ;
683 -> 684 ;
685 [label="age <= 54.5\ngini = 0.18\nsamples = 10\nvalue = [1, 9]\nclass = Yes"] ;
683 -> 685 ;
686 [label="gini = 0.0\nsamples = 8\nvalue = [0, 8]\nclass = Yes"] ;
685 -> 686 ;
687 [label="campaign <= 2.5\ngini = 0.5\nsamples = 2\nvalue = [1, 1]\nclass = No"] ;
685 -> 687 ;
688 [label="gini = 0.0\nsamples = 1\nvalue = [1, 0]\nclass = No"] ;
687 -> 688 ;
689 [label="gini = 0.0\nsamples = 1\nvalue = [0, 1]\nclass = Yes"] ;
687 -> 689 ;
690 [label="gini = 0.0\nsamples = 2\nvalue = [2, 0]\nclass = No"] ;
682 -> 690 ;
691 [label="pdays <= 102.5\ngini = 0.352\nsamples = 197\nvalue = [152, 45]\nclass = No"] ;
439 -> 691 ;
692 [label="age <= 57.5\ngini = 0.464\nsamples = 52\nvalue = [33, 19]\nclass = No"] ;
691 -> 692 ;
693 [label="pdays <= 97.5\ngini = 0.491\nsamples = 44\nvalue = [25, 19]\nclass = No"] ;
692 -> 693 ;
694 [label="previous <= 1.5\ngini = 0.456\nsamples = 37\nvalue = [24, 13]\nclass = No"] ;
693 -> 694 ;
695 [label="month_nov <= 0.5\ngini = 0.153\nsamples = 12\nvalue = [11, 1]\nclass = No"] ;
694 -> 695 ;
696 [label="gini = 0.0\nsamples = 11\nvalue = [11, 0]\nclass = No"] ;
695 -> 696 ;
697 [label="gini = 0.0\nsamples = 1\nvalue = [0, 1]\nclass = Yes"] ;
695 -> 697 ;
698 [label="balance <= 1493.5\ngini = 0.499\nsamples = 25\nvalue = [13, 12]\nclass = No"] ;
694 -> 698 ;
699 [label="job_technician <= 0.5\ngini = 0.43\nsamples = 16\nvalue = [11, 5]\nclass = No"] ;
698 -> 699 ;
700 [label="previous <= 3.5\ngini = 0.337\nsamples = 14\nvalue = [11, 3]\nclass = No"] ;
699 -> 700 ;
701 [label="balance <= 306.0\ngini = 0.5\nsamples = 6\nvalue = [3, 3]\nclass = No"] ;
700 -> 701 ;
702 [label="gini = 0.0\nsamples = 2\nvalue = [0, 2]\nclass = Yes"] ;
701 -> 702 ;
703 [label="day <= 9.5\ngini = 0.375\nsamples = 4\nvalue = [3, 1]\nclass = No"] ;
701 -> 703 ;
704 [label="gini = 0.0\nsamples = 1\nvalue = [0, 1]\nclass = Yes"] ;
703 -> 704 ;
705 [label="gini = 0.0\nsamples = 3\nvalue = [3, 0]\nclass = No"] ;
703 -> 705 ;
706 [label="gini = 0.0\nsamples = 8\nvalue = [8, 0]\nclass = No"] ;
700 -> 706 ;
707 [label="gini = 0.0\nsamples = 2\nvalue = [0, 2]\nclass = Yes"] ;
699 -> 707 ;
708 [label="balance <= 5642.0\ngini = 0.346\nsamples = 9\nvalue = [2, 7]\nclass = Yes"] ;
698 -> 708 ;
709 [label="gini = 0.0\nsamples = 7\nvalue = [0, 7]\nclass = Yes"] ;
708 -> 709 ;
710 [label="gini = 0.0\nsamples = 2\nvalue = [2, 0]\nclass = No"] ;
708 -> 710 ;
711 [label="duration <= 187.0\ngini = 0.245\nsamples = 7\nvalue = [1, 6]\nclass = Yes"] ;
693 -> 711 ;
712 [label="gini = 0.0\nsamples = 6\nvalue = [0, 6]\nclass = Yes"] ;
711 -> 712 ;
713 [label="gini = 0.0\nsamples = 1\nvalue = [1, 0]\nclass = No"] ;
711 -> 713 ;
714 [label="gini = 0.0\nsamples = 8\nvalue = [8, 0]\nclass = No"] ;
692 -> 714 ;
715 [label="month_nov <= 0.5\ngini = 0.294\nsamples = 145\nvalue = [119, 26]\nclass = No"] ;
691 -> 715 ;
716 [label="duration <= 194.5\ngini = 0.333\nsamples = 123\nvalue = [97, 26]\nclass = No"] ;
715 -> 716 ;
717 [label="day <= 30.5\ngini = 0.292\nsamples = 107\nvalue = [88, 19]\nclass = No"] ;
716 -> 717 ;
718 [label="pdays <= 373.0\ngini = 0.282\nsamples = 106\nvalue = [88, 18]\nclass = No"] ;
717 -> 718 ;
719 [label="job_retired <= 0.5\ngini = 0.249\nsamples = 96\nvalue = [82, 14]\nclass = No"] ;
718 -> 719 ;
720 [label="balance <= 1179.5\ngini = 0.227\nsamples = 92\nvalue = [80, 12]\nclass = No"] ;
719 -> 720 ;
721 [label="age <= 59.5\ngini = 0.155\nsamples = 59\nvalue = [54, 5]\nclass = No"] ;
720 -> 721 ;
722 [label="month_sep <= 0.5\ngini = 0.128\nsamples = 58\nvalue = [54, 4]\nclass = No"] ;
721 -> 722 ;
723 [label="duration <= 182.0\ngini = 0.101\nsamples = 56\nvalue = [53, 3]\nclass = No"] ;
722 -> 723 ;
724 [label="job_student <= 0.5\ngini = 0.043\nsamples = 46\nvalue = [45, 1]\nclass = No"] ;
723 -> 724 ;
725 [label="gini = 0.0\nsamples = 43\nvalue = [43, 0]\nclass = No"] ;
724 -> 725 ;
726 [label="previous <= 2.0\ngini = 0.444\nsamples = 3\nvalue = [2, 1]\nclass = No"] ;
724 -> 726 ;
727 [label="gini = 0.0\nsamples = 1\nvalue = [0, 1]\nclass = Yes"] ;
726 -> 727 ;
728 [label="gini = 0.0\nsamples = 2\nvalue = [2, 0]\nclass = No"] ;
726 -> 728 ;
729 [label="education_tertiary <= 0.5\ngini = 0.32\nsamples = 10\nvalue = [8, 2]\nclass = No"] ;
723 -> 729 ;
730 [label="gini = 0.0\nsamples = 7\nvalue = [7, 0]\nclass = No"] ;
729 -> 730 ;
731 [label="pdays <= 235.0\ngini = 0.444\nsamples = 3\nvalue = [1, 2]\nclass = Yes"] ;
729 -> 731 ;
732 [label="gini = 0.0\nsamples = 1\nvalue = [1, 0]\nclass = No"] ;
731 -> 732 ;
733 [label="gini = 0.0\nsamples = 2\nvalue = [0, 2]\nclass = Yes"] ;
731 -> 733 ;
734 [label="job_management <= 0.5\ngini = 0.5\nsamples = 2\nvalue = [1, 1]\nclass = No"] ;
722 -> 734 ;
735 [label="gini = 0.0\nsamples = 1\nvalue = [0, 1]\nclass = Yes"] ;
734 -> 735 ;
736 [label="gini = 0.0\nsamples = 1\nvalue = [1, 0]\nclass = No"] ;
734 -> 736 ;
737 [label="gini = 0.0\nsamples = 1\nvalue = [0, 1]\nclass = Yes"] ;
721 -> 737 ;
738 [label="age <= 32.5\ngini = 0.334\nsamples = 33\nvalue = [26, 7]\nclass = No"] ;
720 -> 738 ;
739 [label="gini = 0.0\nsamples = 3\nvalue = [0, 3]\nclass = Yes"] ;
738 -> 739 ;
740 [label="balance <= 1228.5\ngini = 0.231\nsamples = 30\nvalue = [26, 4]\nclass = No"] ;
738 -> 740 ;
741 [label="gini = 0.0\nsamples = 1\nvalue = [0, 1]\nclass = Yes"] ;
740 -> 741 ;
742 [label="month_feb <= 0.5\ngini = 0.185\nsamples = 29\nvalue = [26, 3]\nclass = No"] ;
740 -> 742 ;
743 [label="balance <= 1476.5\ngini = 0.083\nsamples = 23\nvalue = [22, 1]\nclass = No"] ;
742 -> 743 ;
744 [label="month_may <= 0.5\ngini = 0.5\nsamples = 2\nvalue = [1, 1]\nclass = No"] ;
743 -> 744 ;
745 [label="gini = 0.0\nsamples = 1\nvalue = [1, 0]\nclass = No"] ;
744 -> 745 ;
746 [label="gini = 0.0\nsamples = 1\nvalue = [0, 1]\nclass = Yes"] ;
744 -> 746 ;
747 [label="gini = 0.0\nsamples = 21\nvalue = [21, 0]\nclass = No"] ;
743 -> 747 ;
748 [label="balance <= 2748.5\ngini = 0.444\nsamples = 6\nvalue = [4, 2]\nclass = No"] ;
742 -> 748 ;
749 [label="gini = 0.0\nsamples = 4\nvalue = [4, 0]\nclass = No"] ;
748 -> 749 ;
750 [label="gini = 0.0\nsamples = 2\nvalue = [0, 2]\nclass = Yes"] ;
748 -> 750 ;
751 [label="pdays <= 291.0\ngini = 0.5\nsamples = 4\nvalue = [2, 2]\nclass = No"] ;
719 -> 751 ;
752 [label="gini = 0.0\nsamples = 2\nvalue = [0, 2]\nclass = Yes"] ;
751 -> 752 ;
753 [label="gini = 0.0\nsamples = 2\nvalue = [2, 0]\nclass = No"] ;
751 -> 753 ;
754 [label="age <= 54.5\ngini = 0.48\nsamples = 10\nvalue = [6, 4]\nclass = No"] ;
718 -> 754 ;
755 [label="age <= 35.5\ngini = 0.375\nsamples = 8\nvalue = [6, 2]\nclass = No"] ;
754 -> 755 ;
756 [label="age <= 31.0\ngini = 0.444\nsamples = 3\nvalue = [1, 2]\nclass = Yes"] ;
755 -> 756 ;
757 [label="gini = 0.0\nsamples = 1\nvalue = [1, 0]\nclass = No"] ;
756 -> 757 ;
758 [label="gini = 0.0\nsamples = 2\nvalue = [0, 2]\nclass = Yes"] ;
756 -> 758 ;
759 [label="gini = 0.0\nsamples = 5\nvalue = [5, 0]\nclass = No"] ;
755 -> 759 ;
760 [label="gini = 0.0\nsamples = 2\nvalue = [0, 2]\nclass = Yes"] ;
754 -> 760 ;
761 [label="gini = 0.0\nsamples = 1\nvalue = [0, 1]\nclass = Yes"] ;
717 -> 761 ;
762 [label="duration <= 197.0\ngini = 0.492\nsamples = 16\nvalue = [9, 7]\nclass = No"] ;
716 -> 762 ;
763 [label="gini = 0.0\nsamples = 3\nvalue = [0, 3]\nclass = Yes"] ;
762 -> 763 ;
764 [label="day <= 14.5\ngini = 0.426\nsamples = 13\nvalue = [9, 4]\nclass = No"] ;
762 -> 764 ;
765 [label="gini = 0.0\nsamples = 5\nvalue = [5, 0]\nclass = No"] ;
764 -> 765 ;
766 [label="job_management <= 0.5\ngini = 0.5\nsamples = 8\nvalue = [4, 4]\nclass = No"] ;
764 -> 766 ;
767 [label="month_aug <= 0.5\ngini = 0.32\nsamples = 5\nvalue = [1, 4]\nclass = Yes"] ;
766 -> 767 ;
768 [label="gini = 0.0\nsamples = 4\nvalue = [0, 4]\nclass = Yes"] ;
767 -> 768 ;
769 [label="gini = 0.0\nsamples = 1\nvalue = [1, 0]\nclass = No"] ;
767 -> 769 ;
770 [label="gini = 0.0\nsamples = 3\nvalue = [3, 0]\nclass = No"] ;
766 -> 770 ;
771 [label="gini = 0.0\nsamples = 22\nvalue = [22, 0]\nclass = No"] ;
715 -> 771 ;
772 [label="month_sep <= 0.5\ngini = 0.028\nsamples = 3059\nvalue = [3016, 43]\nclass = No"] ;
438 -> 772 ;
773 [label="pdays <= 381.0\ngini = 0.024\nsamples = 3045\nvalue = [3008, 37]\nclass = No"] ;
772 -> 773 ;
774 [label="month_may <= 0.5\ngini = 0.023\nsamples = 3041\nvalue = [3005, 36]\nclass = No"] ;
773 -> 774 ;
775 [label="pdays <= 355.0\ngini = 0.04\nsamples = 1503\nvalue = [1472, 31]\nclass = No"] ;
774 -> 775 ;
776 [label="previous <= 3.5\ngini = 0.039\nsamples = 1501\nvalue = [1471, 30]\nclass = No"] ;
775 -> 776 ;
777 [label="day <= 16.5\ngini = 0.032\nsamples = 1421\nvalue = [1398, 23]\nclass = No"] ;
776 -> 777 ;
778 [label="month_nov <= 0.5\ngini = 0.06\nsamples = 647\nvalue = [627, 20]\nclass = No"] ;
777 -> 778 ;
779 [label="age <= 32.5\ngini = 0.04\nsamples = 637\nvalue = [624, 13]\nclass = No"] ;
778 -> 779 ;
780 [label="duration <= 167.5\ngini = 0.078\nsamples = 147\nvalue = [141, 6]\nclass = No"] ;
779 -> 780 ;
781 [label="pdays <= 27.0\ngini = 0.177\nsamples = 61\nvalue = [55, 6]\nclass = No"] ;
780 -> 781 ;
782 [label="day <= 14.5\ngini = 0.133\nsamples = 56\nvalue = [52, 4]\nclass = No"] ;
781 -> 782 ;
783 [label="balance <= 45.5\ngini = 0.075\nsamples = 51\nvalue = [49, 2]\nclass = No"] ;
782 -> 783 ;
784 [label="day <= 12.0\ngini = 0.278\nsamples = 12\nvalue = [10, 2]\nclass = No"] ;
783 -> 784 ;
785 [label="job_technician <= 0.5\ngini = 0.165\nsamples = 11\nvalue = [10, 1]\nclass = No"] ;
784 -> 785 ;
786 [label="gini = 0.0\nsamples = 9\nvalue = [9, 0]\nclass = No"] ;
785 -> 786 ;
787 [label="age <= 31.0\ngini = 0.5\nsamples = 2\nvalue = [1, 1]\nclass = No"] ;
785 -> 787 ;
788 [label="gini = 0.0\nsamples = 1\nvalue = [0, 1]\nclass = Yes"] ;
787 -> 788 ;
789 [label="gini = 0.0\nsamples = 1\nvalue = [1, 0]\nclass = No"] ;
787 -> 789 ;
790 [label="gini = 0.0\nsamples = 1\nvalue = [0, 1]\nclass = Yes"] ;
784 -> 790 ;
791 [label="gini = 0.0\nsamples = 39\nvalue = [39, 0]\nclass = No"] ;
783 -> 791 ;
792 [label="age <= 29.5\ngini = 0.48\nsamples = 5\nvalue = [3, 2]\nclass = No"] ;
782 -> 792 ;
793 [label="gini = 0.0\nsamples = 3\nvalue = [3, 0]\nclass = No"] ;
792 -> 793 ;
794 [label="gini = 0.0\nsamples = 2\nvalue = [0, 2]\nclass = Yes"] ;
792 -> 794 ;
795 [label="duration <= 162.0\ngini = 0.48\nsamples = 5\nvalue = [3, 2]\nclass = No"] ;
781 -> 795 ;
796 [label="gini = 0.0\nsamples = 3\nvalue = [3, 0]\nclass = No"] ;
795 -> 796 ;
797 [label="gini = 0.0\nsamples = 2\nvalue = [0, 2]\nclass = Yes"] ;
795 -> 797 ;
798 [label="gini = 0.0\nsamples = 86\nvalue = [86, 0]\nclass = No"] ;
780 -> 798 ;
799 [label="day <= 4.5\ngini = 0.028\nsamples = 490\nvalue = [483, 7]\nclass = No"] ;
779 -> 799 ;
800 [label="job_technician <= 0.5\ngini = 0.058\nsamples = 166\nvalue = [161, 5]\nclass = No"] ;
799 -> 800 ;
801 [label="month_jul <= 0.5\ngini = 0.03\nsamples = 133\nvalue = [131, 2]\nclass = No"] ;
800 -> 801 ;
802 [label="poutcome_other <= 0.5\ngini = 0.015\nsamples = 129\nvalue = [128, 1]\nclass = No"] ;
801 -> 802 ;
803 [label="gini = 0.0\nsamples = 122\nvalue = [122, 0]\nclass = No"] ;
802 -> 803 ;
804 [label="pdays <= 46.5\ngini = 0.245\nsamples = 7\nvalue = [6, 1]\nclass = No"] ;
802 -> 804 ;
805 [label="gini = 0.0\nsamples = 1\nvalue = [0, 1]\nclass = Yes"] ;
804 -> 805 ;
806 [label="gini = 0.0\nsamples = 6\nvalue = [6, 0]\nclass = No"] ;
804 -> 806 ;
807 [label="balance <= 1678.0\ngini = 0.375\nsamples = 4\nvalue = [3, 1]\nclass = No"] ;
801 -> 807 ;
808 [label="gini = 0.0\nsamples = 3\nvalue = [3, 0]\nclass = No"] ;
807 -> 808 ;
809 [label="gini = 0.0\nsamples = 1\nvalue = [0, 1]\nclass = Yes"] ;
807 -> 809 ;
810 [label="duration <= 194.0\ngini = 0.165\nsamples = 33\nvalue = [30, 3]\nclass = No"] ;
800 -> 810 ;
811 [label="balance <= 1538.5\ngini = 0.121\nsamples = 31\nvalue = [29, 2]\nclass = No"] ;
810 -> 811 ;
812 [label="gini = 0.0\nsamples = 19\nvalue = [19, 0]\nclass = No"] ;
811 -> 812 ;
813 [label="balance <= 1594.5\ngini = 0.278\nsamples = 12\nvalue = [10, 2]\nclass = No"] ;
811 -> 813 ;
814 [label="gini = 0.0\nsamples = 1\nvalue = [0, 1]\nclass = Yes"] ;
813 -> 814 ;
815 [label="duration <= 145.5\ngini = 0.165\nsamples = 11\nvalue = [10, 1]\nclass = No"] ;
813 -> 815 ;
816 [label="age <= 38.5\ngini = 0.444\nsamples = 3\nvalue = [2, 1]\nclass = No"] ;
815 -> 816 ;
817 [label="gini = 0.0\nsamples = 1\nvalue = [0, 1]\nclass = Yes"] ;
816 -> 817 ;
818 [label="gini = 0.0\nsamples = 2\nvalue = [2, 0]\nclass = No"] ;
816 -> 818 ;
819 [label="gini = 0.0\nsamples = 8\nvalue = [8, 0]\nclass = No"] ;
815 -> 819 ;
820 [label="day <= 2.5\ngini = 0.5\nsamples = 2\nvalue = [1, 1]\nclass = No"] ;
810 -> 820 ;
821 [label="gini = 0.0\nsamples = 1\nvalue = [0, 1]\nclass = Yes"] ;
820 -> 821 ;
822 [label="gini = 0.0\nsamples = 1\nvalue = [1, 0]\nclass = No"] ;
820 -> 822 ;
823 [label="previous <= 1.5\ngini = 0.012\nsamples = 324\nvalue = [322, 2]\nclass = No"] ;
799 -> 823 ;
824 [label="month_feb <= 0.5\ngini = 0.007\nsamples = 302\nvalue = [301, 1]\nclass = No"] ;
823 -> 824 ;
825 [label="gini = 0.0\nsamples = 270\nvalue = [270, 0]\nclass = No"] ;
824 -> 825 ;
826 [label="day <= 13.5\ngini = 0.061\nsamples = 32\nvalue = [31, 1]\nclass = No"] ;
824 -> 826 ;
827 [label="gini = 0.0\nsamples = 31\nvalue = [31, 0]\nclass = No"] ;
826 -> 827 ;
828 [label="gini = 0.0\nsamples = 1\nvalue = [0, 1]\nclass = Yes"] ;
826 -> 828 ;
829 [label="month_aug <= 0.5\ngini = 0.087\nsamples = 22\nvalue = [21, 1]\nclass = No"] ;
823 -> 829 ;
830 [label="gini = 0.0\nsamples = 19\nvalue = [19, 0]\nclass = No"] ;
829 -> 830 ;
831 [label="age <= 40.0\ngini = 0.444\nsamples = 3\nvalue = [2, 1]\nclass = No"] ;
829 -> 831 ;
832 [label="gini = 0.0\nsamples = 1\nvalue = [0, 1]\nclass = Yes"] ;
831 -> 832 ;
833 [label="gini = 0.0\nsamples = 2\nvalue = [2, 0]\nclass = No"] ;
831 -> 833 ;
834 [label="poutcome_unknown <= 0.5\ngini = 0.42\nsamples = 10\nvalue = [3, 7]\nclass = Yes"] ;
778 -> 834 ;
835 [label="duration <= 168.0\ngini = 0.375\nsamples = 4\nvalue = [3, 1]\nclass = No"] ;
834 -> 835 ;
836 [label="gini = 0.0\nsamples = 1\nvalue = [0, 1]\nclass = Yes"] ;
835 -> 836 ;
837 [label="gini = 0.0\nsamples = 3\nvalue = [3, 0]\nclass = No"] ;
835 -> 837 ;
838 [label="gini = 0.0\nsamples = 6\nvalue = [0, 6]\nclass = Yes"] ;
834 -> 838 ;
839 [label="balance <= 0.5\ngini = 0.008\nsamples = 774\nvalue = [771, 3]\nclass = No"] ;
777 -> 839 ;
840 [label="duration <= 146.5\ngini = 0.028\nsamples = 143\nvalue = [141, 2]\nclass = No"] ;
839 -> 840 ;
841 [label="marital_married <= 0.5\ngini = 0.117\nsamples = 16\nvalue = [15, 1]\nclass = No"] ;
840 -> 841 ;
842 [label="gini = 0.0\nsamples = 1\nvalue = [0, 1]\nclass = Yes"] ;
841 -> 842 ;
843 [label="gini = 0.0\nsamples = 15\nvalue = [15, 0]\nclass = No"] ;
841 -> 843 ;
844 [label="day <= 29.5\ngini = 0.016\nsamples = 127\nvalue = [126, 1]\nclass = No"] ;
840 -> 844 ;
845 [label="gini = 0.0\nsamples = 112\nvalue = [112, 0]\nclass = No"] ;
844 -> 845 ;
846 [label="age <= 33.0\ngini = 0.124\nsamples = 15\nvalue = [14, 1]\nclass = No"] ;
844 -> 846 ;
847 [label="contact_telephone <= 0.5\ngini = 0.5\nsamples = 2\nvalue = [1, 1]\nclass = No"] ;
846 -> 847 ;
848 [label="gini = 0.0\nsamples = 1\nvalue = [0, 1]\nclass = Yes"] ;
847 -> 848 ;
849 [label="gini = 0.0\nsamples = 1\nvalue = [1, 0]\nclass = No"] ;
847 -> 849 ;
850 [label="gini = 0.0\nsamples = 13\nvalue = [13, 0]\nclass = No"] ;
846 -> 850 ;
851 [label="age <= 52.5\ngini = 0.003\nsamples = 631\nvalue = [630, 1]\nclass = No"] ;
839 -> 851 ;
852 [label="gini = 0.0\nsamples = 582\nvalue = [582, 0]\nclass = No"] ;
851 -> 852 ;
853 [label="loan <= 0.5\ngini = 0.04\nsamples = 49\nvalue = [48, 1]\nclass = No"] ;
851 -> 853 ;
854 [label="gini = 0.0\nsamples = 42\nvalue = [42, 0]\nclass = No"] ;
853 -> 854 ;
855 [label="job_technician <= 0.5\ngini = 0.245\nsamples = 7\nvalue = [6, 1]\nclass = No"] ;
853 -> 855 ;
856 [label="gini = 0.0\nsamples = 6\nvalue = [6, 0]\nclass = No"] ;
855 -> 856 ;
857 [label="gini = 0.0\nsamples = 1\nvalue = [0, 1]\nclass = Yes"] ;
855 -> 857 ;
858 [label="age <= 55.5\ngini = 0.16\nsamples = 80\nvalue = [73, 7]\nclass = No"] ;
776 -> 858 ;
859 [label="age <= 24.5\ngini = 0.101\nsamples = 75\nvalue = [71, 4]\nclass = No"] ;
858 -> 859 ;
860 [label="gini = 0.0\nsamples = 1\nvalue = [0, 1]\nclass = Yes"] ;
859 -> 860 ;
861 [label="month_aug <= 0.5\ngini = 0.078\nsamples = 74\nvalue = [71, 3]\nclass = No"] ;
859 -> 861 ;
862 [label="month_jul <= 0.5\ngini = 0.054\nsamples = 72\nvalue = [70, 2]\nclass = No"] ;
861 -> 862 ;
863 [label="pdays <= 265.5\ngini = 0.029\nsamples = 69\nvalue = [68, 1]\nclass = No"] ;
862 -> 863 ;
864 [label="gini = 0.0\nsamples = 59\nvalue = [59, 0]\nclass = No"] ;
863 -> 864 ;
865 [label="pdays <= 272.0\ngini = 0.18\nsamples = 10\nvalue = [9, 1]\nclass = No"] ;
863 -> 865 ;
866 [label="gini = 0.0\nsamples = 1\nvalue = [0, 1]\nclass = Yes"] ;
865 -> 866 ;
867 [label="gini = 0.0\nsamples = 9\nvalue = [9, 0]\nclass = No"] ;
865 -> 867 ;
868 [label="pdays <= 187.5\ngini = 0.444\nsamples = 3\nvalue = [2, 1]\nclass = No"] ;
862 -> 868 ;
869 [label="gini = 0.0\nsamples = 1\nvalue = [0, 1]\nclass = Yes"] ;
868 -> 869 ;
870 [label="gini = 0.0\nsamples = 2\nvalue = [2, 0]\nclass = No"] ;
868 -> 870 ;
871 [label="balance <= 213.0\ngini = 0.5\nsamples = 2\nvalue = [1, 1]\nclass = No"] ;
861 -> 871 ;
872 [label="gini = 0.0\nsamples = 1\nvalue = [0, 1]\nclass = Yes"] ;
871 -> 872 ;
873 [label="gini = 0.0\nsamples = 1\nvalue = [1, 0]\nclass = No"] ;
871 -> 873 ;
874 [label="education_secondary <= 0.5\ngini = 0.48\nsamples = 5\nvalue = [2, 3]\nclass = Yes"] ;
858 -> 874 ;
875 [label="gini = 0.0\nsamples = 2\nvalue = [2, 0]\nclass = No"] ;
874 -> 875 ;
876 [label="gini = 0.0\nsamples = 3\nvalue = [0, 3]\nclass = Yes"] ;
874 -> 876 ;
877 [label="education_tertiary <= 0.5\ngini = 0.5\nsamples = 2\nvalue = [1, 1]\nclass = No"] ;
775 -> 877 ;
878 [label="gini = 0.0\nsamples = 1\nvalue = [1, 0]\nclass = No"] ;
877 -> 878 ;
879 [label="gini = 0.0\nsamples = 1\nvalue = [0, 1]\nclass = Yes"] ;
877 -> 879 ;
880 [label="contact_unknown <= 0.5\ngini = 0.006\nsamples = 1538\nvalue = [1533, 5]\nclass = No"] ;
774 -> 880 ;
881 [label="day <= 26.5\ngini = 0.016\nsamples = 615\nvalue = [610, 5]\nclass = No"] ;
880 -> 881 ;
882 [label="day <= 23.5\ngini = 0.01\nsamples = 610\nvalue = [607, 3]\nclass = No"] ;
881 -> 882 ;
883 [label="day <= 13.5\ngini = 0.007\nsamples = 602\nvalue = [600, 2]\nclass = No"] ;
882 -> 883 ;
884 [label="gini = 0.0\nsamples = 394\nvalue = [394, 0]\nclass = No"] ;
883 -> 884 ;
885 [label="duration <= 190.0\ngini = 0.019\nsamples = 208\nvalue = [206, 2]\nclass = No"] ;
883 -> 885 ;
886 [label="job_services <= 0.5\ngini = 0.011\nsamples = 178\nvalue = [177, 1]\nclass = No"] ;
885 -> 886 ;
887 [label="gini = 0.0\nsamples = 150\nvalue = [150, 0]\nclass = No"] ;
886 -> 887 ;
888 [label="balance <= 5.0\ngini = 0.069\nsamples = 28\nvalue = [27, 1]\nclass = No"] ;
886 -> 888 ;
889 [label="balance <= 1.0\ngini = 0.278\nsamples = 6\nvalue = [5, 1]\nclass = No"] ;
888 -> 889 ;
890 [label="gini = 0.0\nsamples = 5\nvalue = [5, 0]\nclass = No"] ;
889 -> 890 ;
891 [label="gini = 0.0\nsamples = 1\nvalue = [0, 1]\nclass = Yes"] ;
889 -> 891 ;
892 [label="gini = 0.0\nsamples = 22\nvalue = [22, 0]\nclass = No"] ;
888 -> 892 ;
893 [label="duration <= 191.5\ngini = 0.064\nsamples = 30\nvalue = [29, 1]\nclass = No"] ;
885 -> 893 ;
894 [label="gini = 0.0\nsamples = 1\nvalue = [0, 1]\nclass = Yes"] ;
893 -> 894 ;
895 [label="gini = 0.0\nsamples = 29\nvalue = [29, 0]\nclass = No"] ;
893 -> 895 ;
896 [label="job_services <= 0.5\ngini = 0.219\nsamples = 8\nvalue = [7, 1]\nclass = No"] ;
882 -> 896 ;
897 [label="gini = 0.0\nsamples = 7\nvalue = [7, 0]\nclass = No"] ;
896 -> 897 ;
898 [label="gini = 0.0\nsamples = 1\nvalue = [0, 1]\nclass = Yes"] ;
896 -> 898 ;
899 [label="marital_single <= 0.5\ngini = 0.48\nsamples = 5\nvalue = [3, 2]\nclass = No"] ;
881 -> 899 ;
900 [label="gini = 0.0\nsamples = 3\nvalue = [3, 0]\nclass = No"] ;
899 -> 900 ;
901 [label="gini = 0.0\nsamples = 2\nvalue = [0, 2]\nclass = Yes"] ;
899 -> 901 ;
902 [label="gini = 0.0\nsamples = 923\nvalue = [923, 0]\nclass = No"] ;
880 -> 902 ;
903 [label="previous <= 1.5\ngini = 0.375\nsamples = 4\nvalue = [3, 1]\nclass = No"] ;
773 -> 903 ;
904 [label="gini = 0.0\nsamples = 1\nvalue = [0, 1]\nclass = Yes"] ;
903 -> 904 ;
905 [label="gini = 0.0\nsamples = 3\nvalue = [3, 0]\nclass = No"] ;
903 -> 905 ;
906 [label="pdays <= 155.5\ngini = 0.49\nsamples = 14\nvalue = [8, 6]\nclass = No"] ;
772 -> 906 ;
907 [label="job_technician <= 0.5\ngini = 0.444\nsamples = 9\nvalue = [3, 6]\nclass = Yes"] ;
906 -> 907 ;
908 [label="age <= 51.5\ngini = 0.245\nsamples = 7\nvalue = [1, 6]\nclass = Yes"] ;
907 -> 908 ;
909 [label="gini = 0.0\nsamples = 6\nvalue = [0, 6]\nclass = Yes"] ;
908 -> 909 ;
910 [label="gini = 0.0\nsamples = 1\nvalue = [1, 0]\nclass = No"] ;
908 -> 910 ;
911 [label="gini = 0.0\nsamples = 2\nvalue = [2, 0]\nclass = No"] ;
907 -> 911 ;
912 [label="gini = 0.0\nsamples = 5\nvalue = [5, 0]\nclass = No"] ;
906 -> 912 ;
913 [label="day <= 20.5\ngini = 0.348\nsamples = 187\nvalue = [145, 42]\nclass = No"] ;
5 -> 913 ;
914 [label="age <= 25.5\ngini = 0.132\nsamples = 113\nvalue = [105, 8]\nclass = No"] ;
913 -> 914 ;
915 [label="education_secondary <= 0.5\ngini = 0.469\nsamples = 8\nvalue = [5, 3]\nclass = No"] ;
914 -> 915 ;
916 [label="gini = 0.0\nsamples = 3\nvalue = [3, 0]\nclass = No"] ;
915 -> 916 ;
917 [label="job_technician <= 0.5\ngini = 0.48\nsamples = 5\nvalue = [2, 3]\nclass = Yes"] ;
915 -> 917 ;
918 [label="gini = 0.0\nsamples = 2\nvalue = [0, 2]\nclass = Yes"] ;
917 -> 918 ;
919 [label="balance <= 329.0\ngini = 0.444\nsamples = 3\nvalue = [2, 1]\nclass = No"] ;
917 -> 919 ;
920 [label="gini = 0.0\nsamples = 1\nvalue = [0, 1]\nclass = Yes"] ;
919 -> 920 ;
921 [label="gini = 0.0\nsamples = 2\nvalue = [2, 0]\nclass = No"] ;
919 -> 921 ;
922 [label="duration <= 96.5\ngini = 0.091\nsamples = 105\nvalue = [100, 5]\nclass = No"] ;
914 -> 922 ;
923 [label="gini = 0.0\nsamples = 44\nvalue = [44, 0]\nclass = No"] ;
922 -> 923 ;
924 [label="duration <= 102.5\ngini = 0.15\nsamples = 61\nvalue = [56, 5]\nclass = No"] ;
922 -> 924 ;
925 [label="age <= 46.0\ngini = 0.5\nsamples = 4\nvalue = [2, 2]\nclass = No"] ;
924 -> 925 ;
926 [label="gini = 0.0\nsamples = 2\nvalue = [2, 0]\nclass = No"] ;
925 -> 926 ;
927 [label="gini = 0.0\nsamples = 2\nvalue = [0, 2]\nclass = Yes"] ;
925 -> 927 ;
928 [label="age <= 32.5\ngini = 0.1\nsamples = 57\nvalue = [54, 3]\nclass = No"] ;
924 -> 928 ;
929 [label="contact_telephone <= 0.5\ngini = 0.337\nsamples = 14\nvalue = [11, 3]\nclass = No"] ;
928 -> 929 ;
930 [label="previous <= 3.5\ngini = 0.26\nsamples = 13\nvalue = [11, 2]\nclass = No"] ;
929 -> 930 ;
931 [label="balance <= 2553.5\ngini = 0.153\nsamples = 12\nvalue = [11, 1]\nclass = No"] ;
930 -> 931 ;
932 [label="gini = 0.0\nsamples = 8\nvalue = [8, 0]\nclass = No"] ;
931 -> 932 ;
933 [label="duration <= 144.5\ngini = 0.375\nsamples = 4\nvalue = [3, 1]\nclass = No"] ;
931 -> 933 ;
934 [label="gini = 0.0\nsamples = 1\nvalue = [0, 1]\nclass = Yes"] ;
933 -> 934 ;
935 [label="gini = 0.0\nsamples = 3\nvalue = [3, 0]\nclass = No"] ;
933 -> 935 ;
936 [label="gini = 0.0\nsamples = 1\nvalue = [0, 1]\nclass = Yes"] ;
930 -> 936 ;
937 [label="gini = 0.0\nsamples = 1\nvalue = [0, 1]\nclass = Yes"] ;
929 -> 937 ;
938 [label="gini = 0.0\nsamples = 43\nvalue = [43, 0]\nclass = No"] ;
928 -> 938 ;
939 [label="duration <= 110.0\ngini = 0.497\nsamples = 74\nvalue = [40, 34]\nclass = No"] ;
913 -> 939 ;
940 [label="pdays <= 226.0\ngini = 0.245\nsamples = 28\nvalue = [24, 4]\nclass = No"] ;
939 -> 940 ;
941 [label="balance <= 3361.5\ngini = 0.198\nsamples = 27\nvalue = [24, 3]\nclass = No"] ;
940 -> 941 ;
942 [label="marital_married <= 0.5\ngini = 0.087\nsamples = 22\nvalue = [21, 1]\nclass = No"] ;
941 -> 942 ;
943 [label="marital_single <= 0.5\ngini = 0.219\nsamples = 8\nvalue = [7, 1]\nclass = No"] ;
942 -> 943 ;
944 [label="gini = 0.0\nsamples = 1\nvalue = [0, 1]\nclass = Yes"] ;
943 -> 944 ;
945 [label="gini = 0.0\nsamples = 7\nvalue = [7, 0]\nclass = No"] ;
943 -> 945 ;
946 [label="gini = 0.0\nsamples = 14\nvalue = [14, 0]\nclass = No"] ;
942 -> 946 ;
947 [label="age <= 40.0\ngini = 0.48\nsamples = 5\nvalue = [3, 2]\nclass = No"] ;
941 -> 947 ;
948 [label="gini = 0.0\nsamples = 3\nvalue = [3, 0]\nclass = No"] ;
947 -> 948 ;
949 [label="gini = 0.0\nsamples = 2\nvalue = [0, 2]\nclass = Yes"] ;
947 -> 949 ;
950 [label="gini = 0.0\nsamples = 1\nvalue = [0, 1]\nclass = Yes"] ;
940 -> 950 ;
951 [label="balance <= 694.5\ngini = 0.454\nsamples = 46\nvalue = [16, 30]\nclass = Yes"] ;
939 -> 951 ;
952 [label="poutcome_other <= 0.5\ngini = 0.111\nsamples = 17\nvalue = [1, 16]\nclass = Yes"] ;
951 -> 952 ;
953 [label="gini = 0.0\nsamples = 16\nvalue = [0, 16]\nclass = Yes"] ;
952 -> 953 ;
954 [label="gini = 0.0\nsamples = 1\nvalue = [1, 0]\nclass = No"] ;
952 -> 954 ;
955 [label="education_secondary <= 0.5\ngini = 0.499\nsamples = 29\nvalue = [15, 14]\nclass = No"] ;
951 -> 955 ;
956 [label="duration <= 180.5\ngini = 0.355\nsamples = 13\nvalue = [10, 3]\nclass = No"] ;
955 -> 956 ;
957 [label="contact_unknown <= 0.5\ngini = 0.18\nsamples = 10\nvalue = [9, 1]\nclass = No"] ;
956 -> 957 ;
958 [label="gini = 0.0\nsamples = 9\nvalue = [9, 0]\nclass = No"] ;
957 -> 958 ;
959 [label="gini = 0.0\nsamples = 1\nvalue = [0, 1]\nclass = Yes"] ;
957 -> 959 ;
960 [label="age <= 41.0\ngini = 0.444\nsamples = 3\nvalue = [1, 2]\nclass = Yes"] ;
956 -> 960 ;
961 [label="gini = 0.0\nsamples = 2\nvalue = [0, 2]\nclass = Yes"] ;
960 -> 961 ;
962 [label="gini = 0.0\nsamples = 1\nvalue = [1, 0]\nclass = No"] ;
960 -> 962 ;
963 [label="age <= 40.5\ngini = 0.43\nsamples = 16\nvalue = [5, 11]\nclass = Yes"] ;
955 -> 963 ;
964 [label="job_technician <= 0.5\ngini = 0.298\nsamples = 11\nvalue = [2, 9]\nclass = Yes"] ;
963 -> 964 ;
965 [label="gini = 0.0\nsamples = 8\nvalue = [0, 8]\nclass = Yes"] ;
964 -> 965 ;
966 [label="age <= 34.0\ngini = 0.444\nsamples = 3\nvalue = [2, 1]\nclass = No"] ;
964 -> 966 ;
967 [label="gini = 0.0\nsamples = 2\nvalue = [2, 0]\nclass = No"] ;
966 -> 967 ;
968 [label="gini = 0.0\nsamples = 1\nvalue = [0, 1]\nclass = Yes"] ;
966 -> 968 ;
969 [label="day <= 27.5\ngini = 0.48\nsamples = 5\nvalue = [3, 2]\nclass = No"] ;
963 -> 969 ;
970 [label="gini = 0.0\nsamples = 2\nvalue = [2, 0]\nclass = No"] ;
969 -> 970 ;
971 [label="age <= 42.5\ngini = 0.444\nsamples = 3\nvalue = [1, 2]\nclass = Yes"] ;
969 -> 971 ;
972 [label="gini = 0.0\nsamples = 1\nvalue = [1, 0]\nclass = No"] ;
971 -> 972 ;
973 [label="gini = 0.0\nsamples = 2\nvalue = [0, 2]\nclass = Yes"] ;
971 -> 973 ;
974 [label="pdays <= 374.5\ngini = 0.174\nsamples = 9535\nvalue = [8619, 916]\nclass = No"] ;
4 -> 974 ;
975 [label="contact_unknown <= 0.5\ngini = 0.164\nsamples = 9454\nvalue = [8600, 854]\nclass = No"] ;
974 -> 975 ;
976 [label="month_jun <= 0.5\ngini = 0.22\nsamples = 6451\nvalue = [5640, 811]\nclass = No"] ;
975 -> 976 ;
977 [label="month_oct <= 0.5\ngini = 0.203\nsamples = 6283\nvalue = [5564, 719]\nclass = No"] ;
976 -> 977 ;
978 [label="month_sep <= 0.5\ngini = 0.192\nsamples = 6179\nvalue = [5514, 665]\nclass = No"] ;
977 -> 978 ;
979 [label="month_dec <= 0.5\ngini = 0.182\nsamples = 6096\nvalue = [5478, 618]\nclass = No"] ;
978 -> 979 ;
980 [label="duration <= 365.5\ngini = 0.176\nsamples = 6048\nvalue = [5458, 590]\nclass = No"] ;
979 -> 980 ;
981 [label="housing <= 0.5\ngini = 0.134\nsamples = 4404\nvalue = [4085, 319]\nclass = No"] ;
980 -> 981 ;
982 [label="balance <= 1717.5\ngini = 0.194\nsamples = 2058\nvalue = [1834, 224]\nclass = No"] ;
981 -> 982 ;
983 [label="job_student <= 0.5\ngini = 0.151\nsamples = 1573\nvalue = [1444, 129]\nclass = No"] ;
982 -> 983 ;
984 [label="campaign <= 1.5\ngini = 0.137\nsamples = 1523\nvalue = [1410, 113]\nclass = No"] ;
983 -> 984 ;
985 [label="day <= 29.5\ngini = 0.211\nsamples = 533\nvalue = [469, 64]\nclass = No"] ;
984 -> 985 ;
986 [label="balance <= 43.0\ngini = 0.184\nsamples = 498\nvalue = [447, 51]\nclass = No"] ;
985 -> 986 ;
987 [label="age <= 46.5\ngini = 0.05\nsamples = 156\nvalue = [152, 4]\nclass = No"] ;
986 -> 987 ;
988 [label="gini = 0.0\nsamples = 108\nvalue = [108, 0]\nclass = No"] ;
987 -> 988 ;
989 [label="poutcome_other <= 0.5\ngini = 0.153\nsamples = 48\nvalue = [44, 4]\nclass = No"] ;
987 -> 989 ;
990 [label="duration <= 354.5\ngini = 0.12\nsamples = 47\nvalue = [44, 3]\nclass = No"] ;
989 -> 990 ;
991 [label="contact_telephone <= 0.5\ngini = 0.083\nsamples = 46\nvalue = [44, 2]\nclass = No"] ;
990 -> 991 ;
992 [label="month_aug <= 0.5\ngini = 0.045\nsamples = 43\nvalue = [42, 1]\nclass = No"] ;
991 -> 992 ;
993 [label="gini = 0.0\nsamples = 39\nvalue = [39, 0]\nclass = No"] ;
992 -> 993 ;
994 [label="marital_married <= 0.5\ngini = 0.375\nsamples = 4\nvalue = [3, 1]\nclass = No"] ;
992 -> 994 ;
995 [label="gini = 0.0\nsamples = 1\nvalue = [0, 1]\nclass = Yes"] ;
994 -> 995 ;
996 [label="gini = 0.0\nsamples = 3\nvalue = [3, 0]\nclass = No"] ;
994 -> 996 ;
997 [label="balance <= 12.0\ngini = 0.444\nsamples = 3\nvalue = [2, 1]\nclass = No"] ;
991 -> 997 ;
998 [label="gini = 0.0\nsamples = 1\nvalue = [0, 1]\nclass = Yes"] ;
997 -> 998 ;
999 [label="gini = 0.0\nsamples = 2\nvalue = [2, 0]\nclass = No"] ;
997 -> 999 ;
1000 [label="gini = 0.0\nsamples = 1\nvalue = [0, 1]\nclass = Yes"] ;
990 -> 1000 ;
1001 [label="gini = 0.0\nsamples = 1\nvalue = [0, 1]\nclass = Yes"] ;
989 -> 1001 ;
1002 [label="balance <= 1220.0\ngini = 0.237\nsamples = 342\nvalue = [295, 47]\nclass = No"] ;
986 -> 1002 ;
1003 [label="job_unknown <= 0.5\ngini = 0.264\nsamples = 300\nvalue = [253, 47]\nclass = No"] ;
1002 -> 1003 ;
1004 [label="balance <= 44.5\ngini = 0.253\nsamples = 296\nvalue = [252, 44]\nclass = No"] ;
1003 -> 1004 ;
1005 [label="gini = 0.0\nsamples = 1\nvalue = [0, 1]\nclass = Yes"] ;
1004 -> 1005 ;
1006 [label="balance <= 1211.5\ngini = 0.249\nsamples = 295\nvalue = [252, 43]\nclass = No"] ;
1004 -> 1006 ;
1007 [label="job_blue-collar <= 0.5\ngini = 0.245\nsamples = 294\nvalue = [252, 42]\nclass = No"] ;
1006 -> 1007 ;
1008 [label="loan <= 0.5\ngini = 0.274\nsamples = 244\nvalue = [204, 40]\nclass = No"] ;
1007 -> 1008 ;
1009 [label="duration <= 204.5\ngini = 0.307\nsamples = 195\nvalue = [158, 37]\nclass = No"] ;
1008 -> 1009 ;
1010 [label="gini = 0.0\nsamples = 1\nvalue = [0, 1]\nclass = Yes"] ;
1009 -> 1010 ;
1011 [label="month_jan <= 0.5\ngini = 0.302\nsamples = 194\nvalue = [158, 36]\nclass = No"] ;
1009 -> 1011 ;
1012 [label="age <= 46.5\ngini = 0.33\nsamples = 163\nvalue = [129, 34]\nclass = No"] ;
1011 -> 1012 ;
1013 [label="age <= 28.5\ngini = 0.29\nsamples = 125\nvalue = [103, 22]\nclass = No"] ;
1012 -> 1013 ;
1014 [label="balance <= 481.0\ngini = 0.454\nsamples = 23\nvalue = [15, 8]\nclass = No"] ;
1013 -> 1014 ;
1015 [label="poutcome_unknown <= 0.5\ngini = 0.165\nsamples = 11\nvalue = [10, 1]\nclass = No"] ;
1014 -> 1015 ;
1016 [label="gini = 0.0\nsamples = 1\nvalue = [0, 1]\nclass = Yes"] ;
1015 -> 1016 ;
1017 [label="gini = 0.0\nsamples = 10\nvalue = [10, 0]\nclass = No"] ;
1015 -> 1017 ;
1018 [label="duration <= 333.5\ngini = 0.486\nsamples = 12\nvalue = [5, 7]\nclass = Yes"] ;
1014 -> 1018 ;
1019 [label="age <= 25.5\ngini = 0.42\nsamples = 10\nvalue = [3, 7]\nclass = Yes"] ;
1018 -> 1019 ;
1020 [label="education_secondary <= 0.5\ngini = 0.48\nsamples = 5\nvalue = [3, 2]\nclass = No"] ;
1019 -> 1020 ;
1021 [label="gini = 0.0\nsamples = 2\nvalue = [0, 2]\nclass = Yes"] ;
1020 -> 1021 ;
1022 [label="gini = 0.0\nsamples = 3\nvalue = [3, 0]\nclass = No"] ;
1020 -> 1022 ;
1023 [label="gini = 0.0\nsamples = 5\nvalue = [0, 5]\nclass = Yes"] ;
1019 -> 1023 ;
1024 [label="gini = 0.0\nsamples = 2\nvalue = [2, 0]\nclass = No"] ;
1018 -> 1024 ;
1025 [label="day <= 17.5\ngini = 0.237\nsamples = 102\nvalue = [88, 14]\nclass = No"] ;
1013 -> 1025 ;
1026 [label="month_nov <= 0.5\ngini = 0.296\nsamples = 72\nvalue = [59, 13]\nclass = No"] ;
1025 -> 1026 ;
1027 [label="balance <= 60.5\ngini = 0.239\nsamples = 65\nvalue = [56, 9]\nclass = No"] ;
1026 -> 1027 ;
1028 [label="gini = 0.0\nsamples = 1\nvalue = [0, 1]\nclass = Yes"] ;
1027 -> 1028 ;
1029 [label="duration <= 220.5\ngini = 0.219\nsamples = 64\nvalue = [56, 8]\nclass = No"] ;
1027 -> 1029 ;
1030 [label="day <= 12.5\ngini = 0.444\nsamples = 12\nvalue = [8, 4]\nclass = No"] ;
1029 -> 1030 ;
1031 [label="day <= 6.0\ngini = 0.32\nsamples = 10\nvalue = [8, 2]\nclass = No"] ;
1030 -> 1031 ;
1032 [label="month_feb <= 0.5\ngini = 0.444\nsamples = 6\nvalue = [4, 2]\nclass = No"] ;
1031 -> 1032 ;
1033 [label="month_aug <= 0.5\ngini = 0.444\nsamples = 3\nvalue = [1, 2]\nclass = Yes"] ;
1032 -> 1033 ;
1034 [label="gini = 0.0\nsamples = 2\nvalue = [0, 2]\nclass = Yes"] ;
1033 -> 1034 ;
1035 [label="gini = 0.0\nsamples = 1\nvalue = [1, 0]\nclass = No"] ;
1033 -> 1035 ;
1036 [label="gini = 0.0\nsamples = 3\nvalue = [3, 0]\nclass = No"] ;
1032 -> 1036 ;
1037 [label="gini = 0.0\nsamples = 4\nvalue = [4, 0]\nclass = No"] ;
1031 -> 1037 ;
1038 [label="gini = 0.0\nsamples = 2\nvalue = [0, 2]\nclass = Yes"] ;
1030 -> 1038 ;
1039 [label="balance <= 105.0\ngini = 0.142\nsamples = 52\nvalue = [48, 4]\nclass = No"] ;
1029 -> 1039 ;
1040 [label="day <= 3.5\ngini = 0.5\nsamples = 2\nvalue = [1, 1]\nclass = No"] ;
1039 -> 1040 ;
1041 [label="gini = 0.0\nsamples = 1\nvalue = [0, 1]\nclass = Yes"] ;
1040 -> 1041 ;
1042 [label="gini = 0.0\nsamples = 1\nvalue = [1, 0]\nclass = No"] ;
1040 -> 1042 ;
1043 [label="pdays <= 356.0\ngini = 0.113\nsamples = 50\nvalue = [47, 3]\nclass = No"] ;
1039 -> 1043 ;
1044 [label="job_management <= 0.5\ngini = 0.08\nsamples = 48\nvalue = [46, 2]\nclass = No"] ;
1043 -> 1044 ;
1045 [label="gini = 0.0\nsamples = 38\nvalue = [38, 0]\nclass = No"] ;
1044 -> 1045 ;
1046 [label="duration <= 240.5\ngini = 0.32\nsamples = 10\nvalue = [8, 2]\nclass = No"] ;
1044 -> 1046 ;
1047 [label="gini = 0.0\nsamples = 1\nvalue = [0, 1]\nclass = Yes"] ;
1046 -> 1047 ;
1048 [label="age <= 31.5\ngini = 0.198\nsamples = 9\nvalue = [8, 1]\nclass = No"] ;
1046 -> 1048 ;
1049 [label="day <= 3.0\ngini = 0.5\nsamples = 2\nvalue = [1, 1]\nclass = No"] ;
1048 -> 1049 ;
1050 [label="gini = 0.0\nsamples = 1\nvalue = [0, 1]\nclass = Yes"] ;
1049 -> 1050 ;
1051 [label="gini = 0.0\nsamples = 1\nvalue = [1, 0]\nclass = No"] ;
1049 -> 1051 ;
1052 [label="gini = 0.0\nsamples = 7\nvalue = [7, 0]\nclass = No"] ;
1048 -> 1052 ;
1053 [label="job_management <= 0.5\ngini = 0.5\nsamples = 2\nvalue = [1, 1]\nclass = No"] ;
1043 -> 1053 ;
1054 [label="gini = 0.0\nsamples = 1\nvalue = [0, 1]\nclass = Yes"] ;
1053 -> 1054 ;
1055 [label="gini = 0.0\nsamples = 1\nvalue = [1, 0]\nclass = No"] ;
1053 -> 1055 ;
1056 [label="education_secondary <= 0.5\ngini = 0.49\nsamples = 7\nvalue = [3, 4]\nclass = Yes"] ;
1026 -> 1056 ;
1057 [label="day <= 12.0\ngini = 0.375\nsamples = 4\nvalue = [3, 1]\nclass = No"] ;
1056 -> 1057 ;
1058 [label="gini = 0.0\nsamples = 3\nvalue = [3, 0]\nclass = No"] ;
1057 -> 1058 ;
1059 [label="gini = 0.0\nsamples = 1\nvalue = [0, 1]\nclass = Yes"] ;
1057 -> 1059 ;
1060 [label="gini = 0.0\nsamples = 3\nvalue = [0, 3]\nclass = Yes"] ;
1056 -> 1060 ;
1061 [label="day <= 25.5\ngini = 0.064\nsamples = 30\nvalue = [29, 1]\nclass = No"] ;
1025 -> 1061 ;
1062 [label="gini = 0.0\nsamples = 25\nvalue = [25, 0]\nclass = No"] ;
1061 -> 1062 ;
1063 [label="duration <= 296.0\ngini = 0.32\nsamples = 5\nvalue = [4, 1]\nclass = No"] ;
1061 -> 1063 ;
1064 [label="gini = 0.0\nsamples = 4\nvalue = [4, 0]\nclass = No"] ;
1063 -> 1064 ;
1065 [label="gini = 0.0\nsamples = 1\nvalue = [0, 1]\nclass = Yes"] ;
1063 -> 1065 ;
1066 [label="age <= 49.5\ngini = 0.432\nsamples = 38\nvalue = [26, 12]\nclass = No"] ;
1012 -> 1066 ;
1067 [label="balance <= 348.0\ngini = 0.494\nsamples = 9\nvalue = [4, 5]\nclass = Yes"] ;
1066 -> 1067 ;
1068 [label="day <= 5.0\ngini = 0.408\nsamples = 7\nvalue = [2, 5]\nclass = Yes"] ;
1067 -> 1068 ;
1069 [label="balance <= 167.0\ngini = 0.444\nsamples = 3\nvalue = [2, 1]\nclass = No"] ;
1068 -> 1069 ;
1070 [label="gini = 0.0\nsamples = 1\nvalue = [0, 1]\nclass = Yes"] ;
1069 -> 1070 ;
1071 [label="gini = 0.0\nsamples = 2\nvalue = [2, 0]\nclass = No"] ;
1069 -> 1071 ;
1072 [label="gini = 0.0\nsamples = 4\nvalue = [0, 4]\nclass = Yes"] ;
1068 -> 1072 ;
1073 [label="gini = 0.0\nsamples = 2\nvalue = [2, 0]\nclass = No"] ;
1067 -> 1073 ;
1074 [label="month_nov <= 0.5\ngini = 0.366\nsamples = 29\nvalue = [22, 7]\nclass = No"] ;
1066 -> 1074 ;
1075 [label="month_may <= 0.5\ngini = 0.278\nsamples = 24\nvalue = [20, 4]\nclass = No"] ;
1074 -> 1075 ;
1076 [label="marital_married <= 0.5\ngini = 0.227\nsamples = 23\nvalue = [20, 3]\nclass = No"] ;
1075 -> 1076 ;
1077 [label="month_jul <= 0.5\ngini = 0.49\nsamples = 7\nvalue = [4, 3]\nclass = No"] ;
1076 -> 1077 ;
